dense/kernel:0
(784, 128)
[[-3.24278980e-01 -7.63362795e-02  4.18699682e-01  5.91959178e-01
  -6.99864477e-02 -2.26094320e-01  4.23736006e-01 -1.86171189e-01
   4.05710161e-01 -7.62409270e-02  2.43105099e-01  2.04103395e-01
  -4.16490138e-01 -6.42123595e-02  5.03111184e-01  3.69833380e-01
   8.80803466e-02 -9.48599074e-03  1.72666445e-01 -4.09442037e-02
   2.97285110e-01 -6.88568771e-01 -8.24065227e-03 -1.55014232e-01
   1.20969266e-01  6.15409315e-02  1.83699340e-01 -1.06951714e-01
   2.77813762e-01 -3.15663666e-01  7.79829383e-01  1.69156343e-02
  -7.77597949e-02  3.65060031e-01  3.09828639e-01  3.66156101e-01
  -6.90662190e-02 -3.15723956e-01 -4.91282612e-01 -1.91592816e-02
   2.18806937e-02 -3.46953660e-01 -1.80349812e-01 -4.67233330e-01
  -2.23782435e-01  2.45333344e-01 -3.74876261e-01 -2.57540315e-01
  -3.10026884e-01 -3.66771668e-01 -1.73894092e-01 -3.66336629e-02
   3.51855695e-01 -8.80459975e-03 -4.66761813e-02  3.30083489e-01
   2.99258500e-01  7.99619220e-03 -3.52923453e-01 -2.99126744e-01
   1.00174792e-01 -4.87852544e-01  1.78466924e-02 -2.81801611e-01
   6.32193983e-02 -1.14891194e-01 -2.36989692e-01  1.06916785e-01
   2.05153823e-01 -4.38674480e-01  1.36201769e-01  2.27622226e-01
  -2.45051667e-01  2.79402863e-02  2.40911961e-01 -2.37092614e-01
  -1.52055383e-01  1.90066978e-01 -3.11293930e-01  3.98046613e-01
   6.60531148e-02  1.04971386e-01  1.23205461e-01 -4.75170374e-01
   1.54650956e-01  1.66350171e-01  2.63231725e-01 -1.20496914e-01
   3.53797302e-02  1.16874553e-01 -4.60426286e-02  1.37301013e-01
   5.87515175e-01 -4.05821800e-01  1.41653717e-01 -3.79206479e-01
  -1.37639806e-01 -5.95195532e-01 -1.69315159e-01 -2.08846238e-02
   8.90484154e-02 -4.61480245e-02  1.46725297e-01  3.05074323e-02
   6.87382400e-01  3.09220403e-01  6.76394030e-02  5.29070618e-03
   2.85357237e-01 -3.83420706e-01 -1.89347193e-02  3.68201762e-01
  -3.05757076e-01 -1.86195984e-01  2.29079545e-01 -1.83786377e-01
   5.03383875e-02  6.92581385e-02  1.33384109e-01  3.37981254e-01
  -4.66542035e-01 -6.84559345e-02  3.45388561e-01  3.28047991e-01
  -1.34714767e-01 -2.23045439e-01 -7.21246898e-02 -1.23241954e-01]
 [-6.01768494e-02  4.85965550e-01 -7.38442600e-01 -3.72278750e-01
  -2.31900901e-01 -2.49941736e-01 -3.23299244e-02  1.35795921e-01
   3.86581719e-01 -7.93655589e-02  2.35799327e-02  3.99605989e-01
   5.56290857e-02 -4.17190850e-01 -2.85422564e-01 -3.48913044e-01
  -1.38088748e-01  4.75322127e-01  1.24945387e-01  5.63056290e-01
   9.51506495e-02  2.66521037e-01 -1.33377969e-01  2.60249108e-01
  -1.74461529e-01  1.65576980e-01  3.56663257e-01 -2.53021896e-01
  -2.88370609e-01  5.39743364e-01 -1.11275800e-01  2.52475962e-04
   3.17486167e-01 -5.61088502e-01  1.65055737e-01 -5.19923307e-02
   3.90023887e-02 -1.88627586e-01  3.36354196e-01 -1.24786543e-02
  -2.25948364e-01  1.58118233e-01  1.92115813e-01  3.32520276e-01
  -1.29244581e-01 -1.66735694e-01  1.84607014e-01  4.86251190e-02
  -2.28576824e-01  1.44193724e-01 -1.00591891e-01 -1.22252600e-02
  -2.23656461e-01 -8.82571340e-02 -8.69291350e-02 -1.30920708e-01
   1.09866872e-01  3.47389638e-01  1.68498620e-01 -2.03377947e-01
  -2.67271101e-01  4.38628078e-01  2.81898856e-01 -1.36295453e-01
   3.46405119e-01 -2.48328239e-01 -7.01675266e-02  9.94105730e-03
  -2.36926362e-01 -1.78708464e-01  4.68880609e-02  5.48055358e-02
  -1.99079946e-01 -4.29024011e-01  1.03524223e-01  4.27271605e-01
   1.41052576e-02  1.51795030e-01 -2.06861138e-01 -2.93623775e-01
   1.83121324e-01 -1.32295378e-02 -2.92256642e-02  2.36157835e-01
   6.92836583e-01 -2.08155379e-01 -1.65497705e-01 -5.90457082e-01
  -2.82231897e-01 -4.98926878e-01 -6.67185560e-02  6.19030535e-01
  -3.17396224e-01  2.40244508e-01 -1.48098603e-01 -1.39484942e-01
  -2.97686875e-01 -5.53119659e-01 -1.25378281e-01 -5.18534482e-02
   3.85995731e-02 -2.85581052e-01 -2.34704122e-01  1.46968722e-01
   1.04868099e-01 -1.51932582e-01 -2.23701075e-01 -6.11394793e-02
  -5.22238854e-03 -3.68400782e-01  2.16736540e-01  1.02553718e-01
   1.04280405e-01 -3.19336518e-03  4.98366058e-01 -1.05618827e-01
  -2.49107584e-01  2.47859269e-01 -1.61927775e-01  8.12468976e-02
   1.65702492e-01 -6.30336031e-02  7.04206228e-02 -1.15291923e-01
  -3.60921919e-01 -3.18200439e-01 -4.16621029e-01 -3.29320610e-01]
 [ 4.32642639e-01  9.56290811e-02  2.92053521e-01 -7.24969879e-02
   2.29253471e-01 -1.72603190e-01  2.33501494e-01  6.87683523e-02
   1.17453724e-01 -4.37646657e-02  2.42529944e-01  5.97514093e-01
   1.45124078e-01 -3.33725810e-01 -4.49741632e-01  1.83578655e-01
   2.33742297e-01 -6.46751607e-03  6.22771010e-02 -4.19336073e-02
  -8.06740895e-02  1.06324345e-01 -1.36371300e-01 -4.18697715e-01
   4.01766211e-01 -6.39978290e-01  1.56321406e-01 -7.73063526e-02
  -2.69773871e-01  2.80099273e-01 -2.37312719e-01  2.75605395e-02
   4.21629339e-01  1.70154646e-02  1.96008116e-01 -9.21006948e-02
   4.76095602e-02 -1.55437514e-01 -3.14953811e-02 -1.39963508e-01
  -6.90882560e-03 -4.45218951e-01 -2.54150301e-01 -5.87979019e-01
   2.20466480e-01 -9.64566320e-02 -9.15642828e-02  4.81888466e-02
  -3.11360717e-01 -6.11850061e-02  2.90094763e-01 -5.53773232e-02
   5.33370636e-02 -3.86471599e-02 -2.10244656e-01  4.21650946e-01
   8.56163353e-02 -5.14875725e-02 -2.03594789e-01 -5.62416017e-01
   3.14270519e-02 -1.30782574e-01 -4.10443425e-01 -1.38393894e-01
   3.30703199e-01 -1.69969946e-01 -3.34566444e-01  2.56536305e-01
  -9.19007584e-02 -3.78888041e-01 -2.67426103e-01 -1.95683852e-01
   2.52897501e-01 -4.18207735e-01 -2.91063786e-01  1.06553301e-01
   8.22181478e-02  6.44742623e-02 -1.13834344e-01 -3.60417455e-01
  -5.31741418e-02  6.54018641e-01  5.00108659e-01 -4.51445937e-01
   9.16092321e-02 -1.19005159e-01  3.71085972e-01  2.23820239e-01
   1.25163645e-01  2.64931489e-02 -2.75349468e-01 -1.39907837e-01
  -1.02817640e-01 -1.49159387e-01  7.71433040e-02 -2.36075222e-02
   1.12912953e-01 -6.26304388e-01  1.86842382e-01  3.02539300e-03
   1.07022993e-01 -3.20886344e-01  2.28784248e-01  7.02403411e-02
   2.70596206e-01 -8.04263353e-03 -2.50261873e-01 -2.52145715e-02
   2.72568733e-01 -2.59653717e-01  2.07903907e-02  1.00485452e-01
  -9.16480049e-02  1.79798186e-01  1.11884631e-01 -2.08466068e-01
   5.55743754e-01  1.24263920e-01  5.21070324e-03  1.28838271e-01
   1.95157588e-01  2.30931610e-01 -3.43492329e-01  3.24989557e-01
   2.77207792e-01  2.44120121e-01 -9.17432308e-02 -1.72925577e-01]
 [-3.42866778e-01  2.58094937e-01 -1.55057088e-01 -1.95251107e-02
  -1.97305679e-01 -3.33929181e-01  1.55712515e-01  1.86633438e-01
  -7.38711804e-02  5.52668720e-02  3.86926174e-01  8.78339037e-02
  -4.42838132e-01 -3.94997388e-01  2.23707855e-01  5.89786708e-01
  -1.54294670e-01  2.60946644e-03 -1.20537058e-01  1.36260018e-02
   5.03752708e-01 -5.92661165e-02 -1.21366389e-01  1.26179075e-02
   3.05955231e-01 -2.47324944e-01 -3.48078907e-01 -2.25471538e-02
   2.45609790e-01 -2.56591976e-01 -1.10606745e-01  2.07831353e-01
  -3.53136919e-02 -5.60239777e-02  2.52040625e-02 -8.50241110e-02
  -6.78497776e-02 -9.78675857e-02 -2.40698427e-01  1.56822070e-01
   1.36027589e-01 -1.32073402e-01  1.02585286e-01 -1.30404443e-01
  -1.67438582e-01  2.17635438e-01 -2.72263169e-01  3.88512790e-01
  -1.39017329e-01 -9.15424377e-02 -2.15586141e-01 -1.34580672e-01
   3.44321847e-01 -1.16223983e-01 -3.76181930e-01  3.55322137e-02
   1.75399985e-02 -2.40109518e-01 -9.05921217e-03 -4.20363009e-01
   1.02821805e-01 -1.00724310e-01 -2.52890348e-01 -2.48123124e-01
   2.93581188e-02  2.05688570e-02 -3.07658762e-01 -1.50457144e-01
  -1.14825405e-01 -3.72558266e-01  1.93828955e-01  2.32689127e-01
  -3.47922109e-02  3.14140692e-03  7.33546913e-02 -2.78910428e-01
   1.09387338e-01  3.05820018e-01 -1.64882347e-01  4.08407569e-01
  -1.15019850e-01 -5.13157882e-02 -1.62430868e-01  7.84368590e-02
   7.85154998e-02  2.44744346e-01 -8.15802217e-02 -1.30540043e-01
   7.88438469e-02  1.72738805e-02 -1.31694665e-02  2.35086232e-01
  -2.25932449e-01 -1.49990559e-01 -3.59264538e-02 -6.87929541e-02
   1.01376683e-01 -5.38899183e-01  2.30466440e-01 -1.94743257e-02
  -7.32623637e-02 -4.61396463e-02  1.44083515e-01  2.10843354e-01
   8.82068127e-02  1.41999304e-01  1.91265807e-01 -3.59327421e-02
  -3.49556774e-01 -2.13110968e-01  2.50956506e-01 -2.35530004e-01
  -1.33292288e-01 -2.58595079e-01 -4.03454214e-01 -1.64549872e-01
  -1.28429219e-01  1.93994269e-01  3.05039018e-01 -1.31268039e-01
  -2.21592054e-01  1.25974447e-01  6.74269721e-02 -6.90193996e-02
  -1.37397185e-01 -7.54594281e-02  2.32132316e-01 -1.70206726e-01]
 [-2.83311039e-01  3.32759559e-01  1.96100697e-01  2.65512951e-02
   3.71631272e-02  7.31447190e-02 -3.51988494e-01 -2.98160259e-02
   7.34941661e-02 -4.87720184e-02  2.97169000e-01  2.67480940e-01
   1.98734865e-01  1.19427621e-01 -2.47021705e-01  3.98139030e-01
  -2.85543740e-01  1.23451501e-01 -6.66478351e-02  3.56988072e-01
   3.12061965e-01 -5.36177084e-02 -3.84460330e-01  2.22581983e-01
  -4.30662066e-01  1.41343296e-01  1.58012062e-02 -5.27490795e-01
   2.20415041e-01  7.30334967e-02  8.89800936e-02 -2.85787135e-02
   3.38397831e-01 -4.32089299e-01  2.08039600e-02 -1.92060485e-01
  -4.21808921e-02  3.78657976e-04  5.49464999e-03  2.14314479e-02
  -1.34957759e-02 -1.17724061e-01  2.53815234e-01 -3.76804590e-01
   8.28794166e-02  7.75824785e-02 -3.01899850e-01  1.05461933e-01
  -5.13856292e-01  1.23131171e-01 -1.98778570e-01  1.87087432e-02
   4.06306386e-01  8.02255794e-02 -4.48218822e-01  1.71763506e-02
   2.12491438e-01 -7.14861378e-02  3.61357629e-01 -5.13532698e-01
  -2.76788354e-01 -5.41461408e-01  1.74159825e-01  4.12821062e-02
   6.64257884e-01 -9.29412693e-02 -2.51760744e-02  1.54480070e-01
  -2.21996665e-01 -2.89139878e-02 -5.08055329e-01  1.16957001e-01
   6.77201450e-01 -2.10338011e-01 -8.44261423e-02 -2.67116934e-01
   1.47984758e-01  3.19532305e-01 -5.05911171e-01 -1.40742615e-01
  -1.37007713e-01  3.21739227e-01  1.93765193e-01 -3.86713892e-01
  -1.40058532e-01  4.59731400e-01  7.32897222e-02  2.28733197e-01
   5.80082357e-01  2.65789218e-02  1.65139392e-01  8.58616456e-02
  -2.47315899e-01  3.65760505e-01  2.83890635e-01  1.82066292e-01
   2.05387935e-01 -2.89359629e-01  1.41239017e-01  2.01833099e-02
  -3.12557727e-01 -2.94371415e-02 -2.94102371e-01 -2.23778188e-02
  -5.13523445e-02  7.08408058e-02 -1.88385054e-01 -4.76454804e-03
   4.29224104e-01 -4.46754664e-01 -4.84193474e-01  5.65826237e-01
   4.17580664e-01 -3.95923138e-01 -2.90395338e-02 -2.25732699e-01
  -2.44743243e-01  1.15948722e-01  1.01965554e-01  1.53598875e-01
  -2.93284953e-01 -7.37045780e-02  4.27462399e-01  2.06653878e-01
   1.32881775e-01  1.14375707e-02 -1.89466923e-01 -4.19169784e-01]
 [-1.13065243e-01 -3.22578140e-02  2.60291010e-01 -1.98368534e-01
  -5.19106537e-02 -2.14665473e-01  6.19822601e-03 -3.17465544e-01
   2.40772337e-01 -3.99007387e-02  8.60973075e-02 -1.06190838e-01
  -3.01068902e-01 -5.25812805e-01  1.38905674e-01  2.91141472e-03
  -4.49012183e-02  3.32613677e-01 -3.47730257e-02  3.09084982e-01
   4.56795953e-02  1.13096587e-01 -5.31621911e-02 -3.69243734e-02
   1.73651893e-02 -4.07115489e-01  1.65378541e-01 -1.88323528e-01
  -2.44768132e-02  3.46744776e-01  1.97894171e-01 -3.06251138e-01
   1.25287727e-01 -1.55055881e-01  1.86910540e-01 -6.97983429e-02
  -3.92430387e-02  6.22833595e-02 -6.72206655e-03  2.71991473e-02
  -4.75277565e-02  1.21808521e-01  3.80057693e-01  3.84938084e-02
  -1.20903432e-01 -3.21404524e-02 -2.92726785e-01 -1.00139193e-02
  -3.32071334e-01  8.76644850e-02 -4.93232906e-02 -1.79986030e-01
   2.54896879e-01 -7.93933272e-02 -3.17093194e-01  2.42426708e-01
   1.51929915e-01  2.87008882e-01 -2.93676704e-02 -1.13609329e-01
  -5.89196235e-02  3.24604325e-02  3.07448596e-01 -6.04303956e-01
   5.03418505e-01 -2.77203590e-01 -2.62336209e-02  3.38720948e-01
   8.22392385e-03 -3.51408385e-02 -1.54841363e-01  7.63745457e-02
   1.73767418e-01 -7.58112669e-02  1.69746757e-01  1.93927586e-02
  -3.24665189e-01 -8.52822047e-03 -1.95840612e-01 -3.31305228e-02
   3.04415047e-01  2.03341186e-01  4.17676628e-01 -1.21545143e-01
   6.09980643e-01  4.25482988e-01  4.57148068e-02 -3.96808758e-02
   1.36776358e-01 -1.51132658e-01 -2.21541375e-01  1.71191648e-01
   1.56670764e-01 -3.99175376e-01  4.30088677e-02 -2.49984264e-01
  -4.24116939e-01 -6.16521239e-01 -3.15334573e-02  7.61439800e-02
  -4.55545336e-01 -6.34099901e-01 -8.44717100e-02 -3.92687656e-02
   4.48263794e-01 -1.90673828e-01 -1.77795187e-01 -6.75693825e-02
   1.24999575e-01 -5.30776083e-01  5.86865731e-02  2.87387341e-01
  -5.09301126e-02 -8.56762379e-02  3.24820578e-02 -2.35928223e-01
  -1.79366097e-01  2.96730816e-01 -1.33183107e-01 -4.13468033e-02
   1.03746459e-01 -4.68431413e-02  1.63595930e-01  2.25942835e-01
   3.13174091e-02  3.41737526e-03 -1.34389177e-01 -8.72329652e-01]
 [-5.39925575e-01  4.61222380e-01  6.38165548e-02 -2.61735052e-01
  -1.79006845e-01  6.07406236e-02  7.91001618e-02 -2.65321493e-01
   2.35746235e-01 -5.19870548e-03 -2.73882896e-01  1.23443730e-01
  -3.45866323e-01  2.64231805e-02  1.13573529e-01  1.88163579e-01
   1.58484906e-01  2.26709068e-01 -4.31753606e-01 -2.71097161e-02
  -1.76630944e-01 -3.22789997e-02  1.06332585e-01  1.94493100e-01
   1.79887190e-01 -7.63245486e-03  1.87318534e-01 -8.61223415e-02
   2.05692425e-01 -4.41690758e-02  6.63132444e-02 -2.16456622e-01
  -1.91711307e-01  4.67036545e-01  3.22748899e-01 -2.82669246e-01
  -3.22778448e-02 -3.94781113e-01 -1.61847651e-01 -1.92994192e-01
  -1.16092704e-01  2.22163022e-01  3.72826844e-01  4.00711089e-01
   1.54659227e-01  9.56990384e-03 -3.73659134e-02  4.76878822e-01
  -3.03881317e-01  5.59679158e-02  3.57843041e-02  7.38847628e-02
   3.46590616e-02 -3.81918661e-02 -3.32319349e-01  8.67744386e-02
   8.80512372e-02  1.83826953e-01 -2.63143033e-01 -3.00588250e-01
  -1.95515424e-01  8.28828439e-02  1.26741096e-01 -5.05038857e-01
  -4.47713546e-02 -8.92956674e-01  5.92107475e-01  6.38691410e-02
  -2.01256528e-01  2.88402468e-01  4.29647177e-01  2.61773858e-02
   5.24611212e-03  3.80120039e-01  5.23961306e-01 -5.27701601e-02
  -7.20345080e-02 -2.10637867e-01 -4.75584179e-01  6.88967407e-02
   1.77656755e-01  7.93380588e-02  6.95356131e-02 -2.82187074e-01
   2.44102091e-01  3.97230953e-01 -1.26835778e-01 -3.69642913e-01
   5.61087988e-02  2.35952526e-01 -1.17673948e-01  2.74465322e-01
   1.30469009e-01 -3.44005926e-03  1.16960429e-01 -1.55392755e-02
  -4.16456819e-01 -5.65802276e-01  3.53424460e-01 -2.27147546e-02
   3.27148527e-01 -3.16804141e-01 -1.50291279e-01  2.35012099e-01
   1.90402240e-01 -2.89365560e-01  2.01858342e-01  8.07768479e-02
  -2.56540805e-01 -4.26648974e-01  1.79344386e-01 -8.64557456e-03
  -4.48154323e-02  8.96208286e-02 -7.15953335e-02  1.43543825e-01
   2.48385295e-02  4.99250978e-01  3.06795575e-02 -3.16120297e-01
  -3.88557523e-01 -2.53108919e-01 -1.43862903e-01  1.30582169e-01
   1.38306245e-01  1.50726527e-01  2.80288577e-01 -4.05731946e-01]
 [-4.23234254e-01  5.23856282e-01  6.04530796e-02 -6.19071499e-02
  -1.18754618e-01 -1.39132947e-01 -8.33808072e-03 -2.55247772e-01
   4.35760282e-02 -8.49725027e-03 -1.34386584e-01  1.04920991e-01
  -5.10379136e-01 -5.87278511e-04 -6.73845828e-01  2.00561851e-01
  -7.30824247e-02  1.07609183e-01 -5.16633928e-01 -1.44991651e-01
  -3.28471065e-01  1.17559675e-02  7.47510940e-02  8.84472299e-03
  -1.68507606e-01 -2.39301488e-01 -1.54422805e-01  7.75427148e-02
   2.04264805e-01 -7.81447366e-02 -1.39825672e-01 -2.73149908e-01
   1.92823783e-01 -5.65290637e-02  3.18594456e-01 -3.67050588e-01
  -5.28655723e-02 -6.51051030e-02  4.04936448e-02 -1.62681296e-01
  -1.88910261e-01  2.47436643e-01  4.39167470e-02 -8.13931040e-03
  -1.08479992e-01 -3.33074391e-01 -2.19743654e-01  4.18674201e-01
  -3.10404092e-01  3.05282295e-01  3.89997251e-02 -4.90044892e-01
   4.46722209e-01 -3.10807377e-01 -4.82422918e-01  1.44805923e-01
   1.66342482e-01  3.57742310e-01  1.40223101e-01 -3.87236923e-01
   1.55452788e-01 -8.74755159e-02  1.85570911e-01 -2.27685347e-01
  -1.18159512e-02 -3.81568491e-01 -4.54409467e-03  2.19866261e-01
   2.02242538e-01  9.21105519e-02 -1.34783536e-01  3.56257111e-01
   2.00634412e-02  4.75852452e-02 -8.80335346e-02  2.81562153e-02
  -2.83109516e-01 -2.60403603e-01 -2.19263509e-01 -1.36843860e-01
   1.98081374e-01 -1.45777404e-01  2.02990368e-01  5.81479445e-02
  -2.13227689e-01  2.76104629e-01 -1.22575998e-01 -1.33300483e-01
  -8.46960098e-02  2.91100800e-01 -2.49260273e-02  2.59220660e-01
   2.58724447e-02  3.95442754e-01  2.18394026e-01 -3.10091466e-01
  -2.40083560e-01 -5.99585414e-01  2.71878600e-01  5.65373749e-02
   8.96324813e-02 -2.28640810e-01 -6.40693307e-03 -1.28535002e-01
   1.64347649e-01 -6.62035123e-02 -2.08557799e-01 -2.95786299e-02
   5.16255712e-03 -2.11180776e-01 -1.66365430e-01 -6.65913522e-02
   3.87666076e-01 -1.92067638e-01  2.00286105e-01 -5.04634716e-02
   1.22834161e-01  2.44015530e-01 -5.09233251e-02 -3.19483429e-01
  -3.32761168e-01 -2.16553435e-01  2.36492604e-02  1.80955708e-01
  -1.54286623e-01 -1.24081552e-01  1.56876408e-02 -1.32600978e-01]
 [ 2.23146856e-01 -3.00412029e-01  9.80147198e-02  2.71575712e-02
  -2.57721931e-01 -1.82088539e-01  3.38138610e-01  7.00167120e-02
   1.89863145e-01 -8.94413218e-02  2.18057856e-01  2.62238204e-01
  -1.53786257e-01 -1.25914469e-01 -2.13446409e-01  1.55989423e-01
  -1.45401627e-01  4.57620710e-01  2.07498550e-01  1.20583609e-01
   1.85274094e-01 -1.15845338e-01  1.48993954e-01  1.79929838e-01
   2.23508984e-01 -1.57507330e-01 -1.96901336e-01 -2.45365858e-01
   1.08124845e-01  3.42613518e-01  1.72647506e-01 -4.49129567e-02
  -4.03722942e-01  3.65422927e-02 -1.54110581e-01 -7.95644149e-02
  -5.71175627e-02 -6.03738194e-03  3.32803577e-01 -1.76609129e-01
   8.27783421e-02 -4.54783589e-01 -5.23181438e-01  1.19630300e-01
  -3.39634180e-01 -6.55110329e-02 -3.35713662e-02 -3.04728121e-01
  -1.76926598e-01 -1.39021099e-01 -1.61632314e-01  5.43582499e-01
   9.50842574e-02  2.62762636e-01  1.68969527e-01 -2.02361979e-02
   4.06681091e-01  2.97602564e-01 -2.83655196e-01  2.40498409e-01
   5.17577887e-01  2.29299311e-02 -2.16162652e-01  2.01917931e-01
   2.15580121e-01 -1.31520629e-01 -4.51170169e-02  1.06579579e-01
  -8.80606547e-02 -1.95013866e-01 -1.63208604e-01  1.22890599e-01
  -3.59576166e-01  3.88471745e-02 -2.10776597e-01  5.19323885e-01
   2.41239145e-02  2.38552764e-01 -3.42224449e-01  2.90750235e-01
  -2.10291371e-01 -1.79763272e-01  5.69294095e-02  2.01250345e-01
   2.43082717e-01 -2.33533576e-01 -6.52957633e-02  2.24232562e-02
   1.36149898e-01 -2.89434373e-01 -4.77967411e-02  1.29986465e-01
   2.39333555e-01 -4.99614716e-01 -2.11498052e-01 -1.22938275e-01
   2.11302359e-02 -6.29885122e-02  5.24007976e-01  4.31471616e-02
   5.27833998e-01  1.17685445e-01 -1.68218032e-01  1.86399087e-01
   3.32169384e-01 -3.02264720e-01 -2.95647949e-01 -2.96526309e-02
   1.15242615e-01  1.14743508e-01  5.07752001e-01  5.12608960e-02
   1.47172898e-01  2.12089434e-01 -1.39985117e-03  1.52488023e-01
  -3.11535299e-02  4.97157983e-02 -2.09475175e-01  3.22508752e-01
   1.79454565e-01  8.71123075e-02  6.46022409e-02  1.57149937e-02
  -1.07399523e-01 -2.09984034e-01 -1.37823179e-01 -2.18857691e-01]
 [ 1.22224741e-01  1.84327587e-01  1.72064811e-01 -1.68844108e-02
   1.36229480e-02  1.66100904e-01  2.48785868e-01  5.58870360e-02
   2.01359332e-01 -4.87744808e-02  1.15592107e-01  4.29233372e-01
   3.81633788e-01  6.09510660e-01  2.76115328e-01  1.13614261e-01
  -4.99965310e-01  1.29861787e-01 -1.35016032e-02  1.04492478e-01
  -8.96455273e-02  3.24319184e-01 -2.41118073e-01 -1.76437184e-01
  -5.36552131e-01  6.70188785e-01  4.76033479e-01  3.51725183e-02
   3.69606137e-01 -1.69018954e-01 -3.09072167e-01 -4.30470377e-01
   2.98602939e-01  2.62186766e-01  2.40260467e-01  5.83294928e-02
  -2.73829233e-02 -1.14492603e-01  4.80373055e-01  5.28344363e-02
  -1.05302811e-01 -2.21666142e-01 -3.13831419e-01 -1.21012397e-01
  -1.44111380e-01 -2.33203769e-01 -4.77427661e-01  3.08293909e-01
  -1.66427061e-01 -1.04113989e-01 -3.49533884e-03 -8.70612338e-02
  -2.04524159e-01 -3.76115412e-01  1.09667130e-01  4.85675752e-01
   2.63730347e-01  3.52018446e-01 -2.37970546e-01  3.04400623e-02
   3.36643368e-01 -5.66888452e-01 -5.99014759e-02  5.06413460e-01
   2.47707814e-01  1.31028295e-01  6.17705323e-02  3.24574500e-01
   1.97000250e-01 -1.86009109e-01 -2.84774989e-01 -3.19125354e-01
  -2.68538833e-01 -4.61542547e-01  1.97120562e-01 -1.19557880e-01
   3.02308083e-01 -5.27210124e-02  1.06668010e-01 -1.82501107e-01
  -5.10094827e-03  2.55611558e-02  2.30176076e-01 -5.00558466e-02
  -3.85874391e-01  1.33465976e-01  1.44375592e-01 -4.00512189e-01
   2.95359671e-01 -2.43723601e-01 -1.59394309e-01  1.59175381e-01
   1.38802426e-02  2.72693604e-01  2.28820860e-01  1.73006549e-01
  -2.78810859e-01  6.81943834e-01  4.20114994e-01  5.39651513e-02
   4.64446098e-01  7.30395257e-01  3.80567573e-02  3.43197912e-01
  -9.39635467e-03 -1.94272593e-01  8.45647752e-02  3.03312596e-02
   1.91447526e-01  9.24489498e-02 -2.27043092e-01 -6.85145184e-02
   3.25018048e-01 -8.06390569e-02 -4.54042591e-02  5.29881194e-02
  -1.89903453e-01  1.90086603e-01  9.60082561e-02  5.93771815e-01
  -6.60852313e-01 -4.19836432e-01 -1.64444402e-01  3.65384631e-02
  -2.76851684e-01 -1.71305850e-01 -1.01109815e+00  2.70969898e-01]
 [ 7.53430843e-01 -1.64354458e-01  4.92387591e-03 -4.41534728e-01
  -6.79373508e-03  4.31313962e-01  7.21902847e-01 -1.78186029e-01
   3.14801574e-01  2.95033865e-02  7.56547213e-01  5.78683019e-01
  -1.20887108e-01  5.84119186e-02 -5.05473077e-01  3.58872592e-01
  -3.83011788e-01  6.58886433e-01 -1.96565837e-01  8.86532128e-01
   4.17692333e-01  3.35714579e-01  4.24015731e-01 -2.23136880e-03
  -1.46185592e-01  2.51158625e-02  7.26449043e-02 -1.06571667e-01
   4.75208163e-01  1.63335484e-02 -3.49503517e-01  3.63320142e-01
  -1.60707980e-01  1.17657334e-01 -3.57567728e-01  7.12435320e-02
  -6.07834160e-02  9.28638950e-02  4.94235575e-01  2.95926839e-01
  -3.79640132e-01 -7.83561945e-01 -4.35838580e-01 -1.15375318e-01
  -9.19766501e-02 -1.10434070e-01 -2.00752243e-01 -1.33971691e-01
  -3.61024626e-02 -8.50716233e-02 -3.14062722e-02  2.65649110e-01
  -6.09974027e-01 -2.86876913e-02  1.83184698e-01 -1.43321425e-01
   6.42557800e-01  6.90420628e-01 -2.75660187e-01 -3.66062433e-01
  -3.25530350e-01  6.62643984e-02 -5.00980914e-01  2.48872474e-01
   1.34090573e-01 -2.00628266e-01  3.34155232e-01  1.08833003e+00
   7.14244768e-02 -5.34087420e-02  3.84984761e-02 -4.15323585e-01
  -2.87743956e-01 -2.52651870e-01 -6.01209521e-01  6.21525824e-01
   7.08590388e-01  7.17949688e-01  7.18495697e-02 -2.72157807e-02
  -1.15039229e-01  9.30054411e-02  2.12677498e-03  1.28717020e-01
  -3.44029754e-01 -8.23078454e-01 -3.47693712e-02 -4.20140743e-01
   2.18572348e-01 -2.00834155e-01 -2.17233837e-01  3.59473944e-01
   4.67075348e-01  1.69647706e-03 -2.65760034e-01  8.33480209e-02
   7.24624917e-02  7.76796862e-02  7.47960448e-01  5.30505702e-02
   3.70048851e-01  3.04695666e-01  2.78234750e-01  5.73201895e-01
   3.23995143e-01 -4.61901128e-01  8.08158442e-02 -8.39709118e-02
   1.63512930e-01  5.39223058e-03  4.17804539e-01 -7.17362091e-02
  -2.50796050e-01  9.02695432e-02  7.19635367e-01  2.83427000e-01
  -2.62548208e-01  2.22808078e-01  8.83644745e-02  6.68884963e-02
  -1.19812302e-01  2.64642537e-01 -4.39762503e-01 -3.20763469e-01
  -9.75434631e-02 -2.59604901e-01 -6.31877840e-01 -3.01855385e-01]
 [-1.55592859e-01  2.38365501e-01 -9.48720947e-02 -5.33797368e-02
  -1.45792499e-01  4.43555355e-01  4.64759558e-01  6.05986342e-02
   2.39811152e-01 -3.10155600e-02  3.74066502e-01 -8.72972235e-02
  -2.37088680e-01  2.50996292e-01  2.45409291e-02  1.57275394e-01
  -5.93463004e-01  1.61528185e-01  3.32515617e-03  5.83821759e-02
   2.44429544e-01  8.11954215e-02  2.85015523e-01 -1.55093312e-01
   1.61354601e-01  4.78792429e-01  4.26382512e-01 -2.29707137e-01
   7.72431135e-01 -3.47855955e-01 -3.02263230e-01 -1.96106389e-01
   7.30074346e-02  1.54397637e-01 -2.59819716e-01  7.02495733e-03
   6.63566217e-02 -3.97876799e-01  4.40734297e-01 -3.96330863e-01
   3.11120391e-01  1.03758544e-01  6.13966249e-02 -5.03460348e-01
  -1.99239507e-01 -2.09826678e-01 -1.10923871e-01  2.12362915e-01
  -4.15459991e-01  2.40375906e-01 -1.14522003e-01  1.13072313e-01
  -2.34872952e-01 -2.35918656e-01  2.79812096e-03 -1.49200663e-01
   7.74270952e-01  3.61252576e-01 -4.75156218e-01 -6.66909993e-01
   4.64312077e-01 -2.15336293e-01 -1.82109773e-01  2.79387236e-01
  -9.45385844e-02 -4.26449895e-01 -7.07246885e-02  1.12945594e-01
  -2.76785761e-01 -1.70646340e-01 -2.56433845e-01 -3.00384518e-02
  -4.54559445e-01 -4.14528579e-01 -1.57307629e-02 -4.40969497e-01
   3.27774853e-01  3.77872407e-01 -6.56579554e-01 -7.96633363e-02
  -2.62473583e-01  2.61064153e-02 -1.61376894e-01  6.68466687e-02
  -1.44414216e-01  2.80835349e-02  3.06075573e-01 -1.07442141e-01
   4.43399161e-01  5.96053675e-02 -6.23407841e-01  1.25018597e-01
   2.52910960e-03  4.39515002e-02  3.05199362e-02  3.22501242e-01
  -2.72267699e-01  4.13566738e-01  6.03561223e-01  5.51885888e-02
   5.46744525e-01  5.45747459e-01 -3.78722727e-01  4.97997403e-01
   1.72540873e-01 -3.18201393e-01  6.92534521e-02 -7.04988986e-02
  -1.68495774e-01  6.46644682e-02  4.35895771e-02  1.35312811e-01
   3.74818034e-02 -8.76587629e-02 -8.74883682e-02  3.16356383e-02
  -6.49041355e-01  1.24527447e-01  2.18033716e-01  3.92723739e-01
  -4.52191830e-01 -2.62264580e-01 -2.23445073e-01  9.09286886e-02
  -2.92742521e-01  1.94462240e-02 -2.19082609e-01  2.34711424e-01]
 [ 1.86870962e-01 -2.95477390e-01 -2.88184315e-01 -1.31614372e-01
   2.96604544e-01 -5.62006295e-01 -1.13616787e-01 -3.06771040e-01
   3.81170399e-02 -1.28836250e-02 -8.80473852e-02  3.46706957e-01
   2.66378760e-01 -4.64783274e-02  3.14673744e-02  1.96218878e-01
   2.76461840e-01  5.33155918e-01  1.29278660e-01 -7.27146864e-02
   2.70761520e-01  1.82257921e-01 -2.63821501e-02  8.27281326e-02
  -1.35752067e-04  2.48931527e-01 -4.27850261e-02 -1.11307204e-01
  -2.52393812e-01  4.34190296e-02  8.75243321e-02  1.49475589e-01
   2.14676753e-01  3.65432650e-01 -2.24410985e-02  4.57222350e-02
  -2.58809570e-02  1.06051736e-01  3.11973542e-01  1.73057872e-03
  -3.79623123e-03 -2.47964770e-01 -4.76321459e-01 -3.06824505e-01
   2.05890253e-01 -7.27808625e-02 -4.59800661e-01 -5.12712836e-01
  -1.44963980e-01 -4.69227545e-02  3.20933521e-01 -2.96929237e-02
  -1.06596865e-01  8.76200497e-02 -3.63442987e-01 -1.17599748e-01
  -1.56392436e-02  4.21683460e-01 -3.84319603e-01  3.91173333e-01
   1.18252486e-01 -6.03530824e-01 -1.73532695e-01  3.28190764e-03
   3.01654190e-01  6.24642611e-01  3.46763551e-01  3.96802545e-01
   1.56906880e-02 -1.62087426e-01 -2.31802151e-01 -2.83003241e-01
   5.12221634e-01  2.87365645e-01  1.62323013e-01 -1.29968449e-01
  -1.34216294e-01 -1.20554022e-01 -1.41441241e-01  2.49980390e-01
   2.02143207e-01  3.76633734e-01  6.80914342e-01 -1.21812455e-01
   1.79465441e-03  1.55810997e-01 -5.95689267e-02 -1.65055856e-01
   2.96417803e-01  4.87875789e-02 -2.14105800e-01 -9.66573358e-02
   1.77917495e-01 -3.70170504e-01  1.38095751e-01  9.77989733e-02
  -1.38220787e-01 -2.54490227e-01  1.75817564e-01 -5.54332621e-02
   3.46993059e-01  4.46812809e-02  1.76091015e-01 -1.79517657e-01
   3.35206032e-01  2.81587038e-02  1.60930127e-01 -6.02717549e-02
   6.43590152e-01 -2.23455518e-01 -3.15950900e-01  4.40574348e-01
  -5.64738847e-02 -3.41379978e-02  1.54795915e-01  6.74920231e-02
   2.00930700e-01  3.24607551e-01  4.30845797e-01  2.40097940e-01
  -4.98455726e-02 -1.84722528e-01  8.68818387e-02  2.44204342e-01
   4.13806170e-01 -1.39429063e-01 -5.74830413e-01 -2.94150382e-01]
 [ 5.81332207e-01 -1.72886863e-01 -3.64405811e-02 -3.42433691e-01
  -1.10713102e-01  5.33193529e-01  8.21594954e-01  3.91590506e-01
  -1.18915953e-01 -8.84303823e-02  7.55723417e-01  4.04029876e-01
  -7.34689906e-02  1.28469422e-01 -2.62415051e-01  3.52474719e-01
  -9.99111712e-01  2.90950865e-01 -1.03668079e-01  9.76758972e-02
   3.25139552e-01 -6.38171285e-02  4.46079113e-02  1.68543696e-01
  -2.13507444e-01  1.51083502e-03  3.53486180e-01 -7.04993233e-02
   5.66545188e-01 -5.68920016e-01 -5.77249408e-01  2.93171167e-01
  -3.25028419e-01 -2.64781177e-01 -1.92428023e-01  6.33068234e-02
  -4.71344665e-02 -1.67215988e-01  5.47603965e-01  8.92225444e-01
  -3.02416891e-01 -1.44783556e-01 -2.31998608e-01 -5.49624115e-02
  -8.73933733e-02 -7.39881620e-02 -1.65365860e-01  1.84418708e-01
   5.71981855e-02  8.57255682e-02 -1.35289356e-01  4.75287765e-01
  -1.25707746e-01 -1.49012774e-01  1.85186103e-01 -6.00323416e-02
   4.23893452e-01  2.92862803e-01 -3.44116747e-01 -1.99018851e-01
  -2.95811206e-01 -7.83317313e-02 -8.10455903e-02  5.79190373e-01
   1.37360245e-01  8.33173916e-02  3.75161231e-01  7.63070405e-01
   5.02328038e-01 -4.57508862e-01 -5.43041229e-01  1.95362061e-01
  -5.29365778e-01 -3.33281785e-01 -4.48863417e-01  1.79863811e-01
   5.63869894e-01  6.18817270e-01 -2.07216144e-01 -1.01788320e-01
  -1.22684576e-01 -2.69350499e-01  2.87131757e-01  2.21409798e-01
  -4.24905837e-01 -9.96993065e-01  1.23078793e-01 -2.62324184e-01
   6.08015239e-01 -3.62042665e-01 -1.82113945e-01  4.57715848e-03
   3.47144485e-01 -3.32605511e-01  2.79812902e-01  1.88725263e-01
  -2.93590203e-02 -2.41687521e-01  4.87103403e-01 -4.90890704e-02
   3.71346861e-01  7.27899671e-01  1.94188625e-01  6.22888565e-01
   2.14417070e-01 -2.27151692e-01  3.85070413e-01  3.59197631e-02
   3.18343878e-01  2.83596635e-01  2.28185013e-01  1.31569415e-01
  -1.94005340e-01  2.07150564e-01  4.86391366e-01  4.79347289e-01
  -7.66948402e-01  2.47651920e-01 -7.38141686e-03  2.03187361e-01
  -2.28852749e-01  1.14127725e-01 -3.52510929e-01  3.95025104e-01
  -1.63610339e-01 -2.68899024e-01 -2.34751374e-01 -5.73070645e-01]
 [-2.01954156e-01 -4.48915735e-02  1.92886204e-01 -5.20452082e-01
   2.44036794e-01 -3.81233692e-02  1.33823678e-01 -6.81646228e-01
   4.84935433e-01 -4.39284742e-02  9.67975631e-02  6.33792877e-01
  -3.22843224e-01 -2.03538507e-01 -5.30651271e-01  1.00741208e-01
  -2.46856838e-01  2.31359020e-01 -2.64800638e-01  2.06621349e-01
  -7.29729682e-02  5.84512055e-01  7.99803555e-01 -5.83630025e-01
  -2.76539356e-01  4.59960878e-01 -9.04082507e-02 -2.34937251e-01
   3.48379403e-01  4.12998974e-01 -4.37862724e-01 -2.00864494e-01
   5.05940914e-01  2.70427644e-01  9.58909169e-02  3.47655229e-02
  -9.98363644e-03  4.23815139e-02  3.29298496e-01 -1.67895913e-01
   2.45678440e-01 -1.62510768e-01 -2.32736021e-01 -2.67456710e-01
  -2.92211831e-01 -1.57031909e-01 -3.04311007e-01 -2.36984879e-01
  -1.40919060e-01  3.82442802e-01 -3.43091078e-02  3.69776696e-01
   2.05582127e-01 -6.00375682e-02  2.13405751e-02 -7.69575089e-02
   3.07545245e-01  1.23184785e-01 -1.78474784e-01 -4.00127351e-01
   5.09278715e-01 -5.99515498e-01 -1.65598229e-01  1.98182628e-01
   3.74642938e-01 -3.22507054e-01  1.01885833e-01  5.13576984e-01
  -1.28081981e-02 -4.65156168e-01 -1.56250656e-01 -3.51820320e-01
   2.18223974e-01 -2.77564138e-01 -1.90306947e-01  1.54246598e-01
  -7.30212927e-02  4.09001485e-03 -3.92768770e-01 -2.14567363e-01
  -2.64311880e-01  2.71249741e-01 -3.71456474e-01 -2.54140526e-01
  -1.65153041e-01  1.28274709e-01 -5.72799481e-02  1.06682397e-01
   6.95354044e-01 -2.64651448e-01 -2.69925356e-01 -1.95781365e-01
  -1.37724921e-01  3.51289124e-03 -2.65991896e-01 -1.97756272e-02
  -8.11166018e-02  3.34528804e-01  1.81471765e-01  2.33792718e-02
   4.06443179e-01  1.31024569e-01 -9.28414389e-02  3.57114911e-01
  -1.70260698e-01  1.96758993e-02 -2.81378210e-01  5.19454330e-02
   1.73378110e-01 -1.69976145e-01 -3.66201460e-01  1.38471290e-01
   2.10208237e-01 -4.35115099e-01 -2.50330120e-01 -1.10490449e-01
  -1.33268293e-02 -3.36485840e-02 -6.08294845e-01 -6.76940829e-02
  -2.03162044e-01 -3.40892941e-01  6.78841025e-02 -7.99894407e-02
   3.29034105e-02 -1.36957854e-01 -1.02864213e-01  4.47633088e-01]
 [ 4.72537428e-01 -9.80831087e-02  6.25561401e-02  2.44256675e-01
  -3.08385104e-01 -4.33522239e-02  1.79055944e-01  1.32327169e-01
  -2.27460191e-01 -5.77214407e-03  2.48963088e-01  5.84399045e-01
   4.69751805e-01 -9.81903449e-02  5.57733551e-02  4.17562008e-01
  -5.40233493e-01  1.91695094e-01  5.42919263e-02  2.48636324e-02
   3.91337037e-01  5.04376769e-01 -1.61248088e-01 -3.50778624e-02
   4.48825479e-01  1.15353234e-01  4.99655344e-02 -1.86960652e-01
   2.58325994e-01 -1.43004641e-01  7.96914622e-02  2.42892906e-01
  -4.32806939e-01 -2.95266092e-01  3.00856411e-01  2.70873696e-01
   7.11225048e-02  1.98442876e-01  2.54531145e-01  5.28024852e-01
   6.58421442e-02 -3.60156000e-01 -3.10393870e-01 -4.02797163e-01
   1.33468777e-01  1.32135123e-01 -1.33175820e-01  4.54567708e-02
  -1.83490142e-01  4.01687533e-01  5.18923886e-02 -1.17365971e-01
  -5.53705513e-01 -3.15913022e-01 -1.59630001e-01 -3.13720465e-01
   1.30897105e-01  2.61339307e-01 -2.75997549e-01 -1.18311927e-01
  -5.21287210e-02 -1.18348949e-01 -7.88664967e-02  1.75623700e-01
   1.64048776e-01  2.47948587e-01  2.34653905e-01  1.94957569e-01
   7.09680915e-02  2.54254520e-01  9.47865844e-02  2.04158664e-01
  -7.12279007e-02 -3.27405244e-01 -3.63364965e-02 -1.48498595e-01
   9.27621499e-03  7.60783106e-02  2.12842971e-01  3.86597604e-01
   2.12015390e-01 -4.85948436e-02  6.59956336e-01  7.32747540e-02
   3.00867260e-02 -1.70653358e-01  2.97188312e-02 -2.32111022e-01
   1.96521342e-01  2.67060280e-01 -2.54320294e-01  4.63479429e-01
   5.18725395e-01  3.32388282e-02  1.05623513e-01  1.99596845e-02
  -1.11607216e-01  3.43456894e-01  1.81641787e-01  5.36069274e-02
  -7.15708211e-02  8.79339650e-02  2.99804896e-01  9.00296196e-02
   4.50592816e-01 -5.78571737e-01  2.03892682e-02  5.87848015e-02
   2.07600370e-01 -1.56697765e-01 -1.77498236e-01 -9.38019902e-02
   2.75173038e-01 -5.98959625e-02  2.47982647e-02  2.71765832e-02
  -3.42713386e-01  6.18366003e-01  3.05064559e-01  1.47357792e-01
  -2.66651958e-01  1.53369429e-02 -1.71506152e-01  2.46349603e-01
  -2.21348196e-01 -6.24879956e-01 -6.97876215e-01 -3.34759802e-01]
 [ 2.80778110e-01  7.83019513e-02  6.40178323e-02  2.14900985e-01
  -9.58152935e-02 -2.84521520e-01  3.64453226e-01  6.18767321e-01
  -4.56106663e-01  9.86459479e-03 -1.35988161e-01  8.73228535e-02
   3.01035225e-01  5.66628277e-01 -4.71487977e-02 -1.06600866e-01
  -2.56182373e-01  2.45326102e-01  2.27595165e-01 -3.38626862e-01
   1.05483830e-01  2.73912065e-02 -4.09036428e-01 -2.46072143e-01
   2.66503304e-01 -6.77810088e-02  4.15661961e-01  6.53186440e-02
  -2.53135096e-02 -5.71071267e-01 -4.07083124e-01 -2.46812731e-01
  -4.77978140e-02 -1.13647506e-01 -4.49686684e-02 -1.57207653e-01
  -5.09187914e-02 -2.15804409e-02  1.81582779e-01  7.02985704e-01
   5.84353268e-01 -8.60586911e-02  8.49052370e-02 -5.21848321e-01
  -1.94880471e-01 -4.39859807e-01 -3.72710705e-01 -3.45897287e-01
  -3.41288038e-02 -2.15801582e-01  3.60670924e-01  1.06573604e-01
  -3.09955329e-01 -6.37530088e-02  4.74641360e-02  1.06406771e-02
  -1.01461168e-02  2.92104900e-01 -6.68548644e-01  8.69100541e-02
   1.34592250e-01 -6.25408709e-01 -3.66632760e-01  2.29634568e-01
   3.40718180e-01  1.26549661e-01 -2.79244691e-01  4.19837296e-01
   1.55436859e-01 -2.22444862e-01 -1.97439238e-01  1.85766608e-01
   1.95427909e-02  7.01795965e-02 -1.14712566e-01 -4.06003505e-01
  -2.96300590e-01 -1.81754693e-01  1.82497352e-01  1.14577651e-01
  -1.19434811e-01 -3.22746664e-01  2.76535869e-01  1.73270795e-02
  -2.94639289e-01  1.26453191e-01  4.42399159e-02  3.99917550e-02
   7.62683079e-02  1.16725408e-01 -2.90831208e-01 -1.89718619e-01
   3.37241024e-01 -1.94025844e-01  2.19923958e-01 -7.67447893e-03
  -2.36813262e-01  8.62031654e-02  4.06423420e-01  3.32939960e-02
   3.40517759e-01  3.72820944e-01 -1.39522791e-01  2.78896093e-01
   2.74964899e-01 -1.55737653e-01  5.74187696e-01 -7.06646368e-02
   8.28218162e-02  2.03498304e-01  1.48277164e-01  1.18754536e-01
   2.08527490e-01  2.30967253e-01  1.96074173e-01  2.92847633e-01
  -1.69671401e-01  3.70793700e-01  4.84057546e-01 -5.88034168e-02
  -6.44795537e-01 -3.38876903e-01 -2.68150032e-01 -3.89897913e-01
  -4.76806641e-01 -1.73783466e-01 -3.46652687e-01  9.55720618e-02]
 [ 2.64027804e-01  1.83763742e-01 -2.63606548e-01 -4.18976843e-01
   5.36002107e-02  5.84224343e-01  3.06918025e-01 -3.21930736e-01
   4.31653887e-01 -7.28812441e-03  4.86288041e-01  2.19077528e-01
  -3.92931461e-01 -1.21130563e-01  1.17107488e-01 -1.62423208e-01
   5.60088493e-02  4.67408270e-01  7.29664117e-02  4.19966102e-01
  -1.74289957e-01 -9.24054980e-02  4.55686092e-01  3.74933511e-01
  -2.26834491e-01 -2.66401380e-01  4.81533036e-02 -1.09526906e-02
   2.26570711e-01  1.91756859e-01 -1.19504713e-01 -5.53751588e-02
   2.33488038e-01 -1.06866479e-01 -2.48298794e-01 -3.02699685e-01
  -8.98762345e-02 -2.92197049e-01  7.76432216e-01 -2.52317507e-02
  -1.80766061e-01 -1.57927334e-01 -1.86787829e-01  1.95817813e-01
   2.26908103e-01 -7.89923295e-02  4.09807414e-01 -5.58340438e-02
  -5.54669835e-02  6.85839355e-02 -7.86245644e-01  2.98630089e-01
   5.29194534e-01  1.10559329e-01  2.52948701e-01 -9.27050337e-02
   2.40138635e-01  4.05072421e-01  4.57339048e-01 -6.52209282e-01
  -5.12019247e-02  3.03384960e-01  2.92696029e-01  4.48821694e-01
   9.08046737e-02  1.88296828e-02 -1.40872374e-01  7.30284750e-01
  -1.16267867e-01  1.47432655e-01 -1.11124113e-01 -2.12844029e-01
  -5.61688133e-02 -8.99104849e-02 -3.62627000e-01  4.40396130e-01
   1.48243522e-02  4.79629397e-01 -3.95987868e-01 -5.78628063e-01
  -7.33279824e-01 -3.46026063e-01  7.65940771e-02  3.53159308e-01
  -1.84783116e-01 -7.06215858e-01  5.49393296e-01  1.43218553e-02
  -1.53669819e-01 -1.63598776e-01 -2.23859936e-01 -1.59943819e-01
  -2.46581227e-01 -3.44096906e-02  2.67016679e-01  3.41417462e-01
   3.94140273e-01  1.28052428e-01  3.08629036e-01 -7.60573968e-02
   7.61100799e-02 -1.69299290e-01 -2.81752534e-02  6.87321872e-02
  -2.14089498e-01  2.01009344e-02  2.61866361e-01 -3.04226037e-02
   2.31709685e-02  5.40215254e-01  1.74073473e-01  1.86814651e-01
  -3.81495863e-01  7.43335858e-02  3.44686508e-01  2.52456099e-01
  -1.30485771e-02  2.88132906e-01 -1.41470850e-01  3.32031436e-02
   2.22427994e-01  1.95703924e-01 -2.42371827e-01 -1.71855874e-02
   1.03245936e-01  2.45540693e-01 -6.60387099e-01 -2.31123298e-01]
 [-7.88689870e-03 -1.48422629e-01  2.42093354e-01 -2.42997631e-02
  -2.34667286e-02  1.37926355e-01 -1.99029431e-01 -2.41512939e-01
  -1.25460342e-01 -9.87463817e-02 -7.31080920e-02  2.44758815e-01
   8.87158606e-03 -1.33857422e-03  2.34735161e-02  7.03774631e-01
   4.78650659e-01 -2.30052546e-01 -3.02852422e-01 -1.98786296e-02
   1.89665973e-01  1.56748787e-01 -8.32309574e-02  1.66852131e-01
   3.61340612e-01  1.52184173e-01  4.14057732e-01 -1.61975287e-02
   1.85846552e-01 -2.68383414e-01 -1.62126631e-01  4.52935219e-01
   6.08685434e-01  3.79206538e-01 -4.34602529e-01  1.53021336e-01
   2.05459166e-02  4.44291234e-01 -2.82285929e-01  4.64535683e-01
   1.01847112e-01 -4.31336462e-01  3.75951260e-01 -4.27120000e-01
  -2.23426782e-02  2.37161800e-01 -3.99631888e-01 -3.20240915e-01
  -1.35401234e-01 -1.94001794e-01  2.10747302e-01 -4.34024453e-01
   1.97867751e-01 -2.54991591e-01 -2.58014351e-01 -1.44335255e-01
   2.76449025e-01  5.69413483e-01 -5.03693342e-01  4.33102623e-02
   2.10303262e-01 -3.21459681e-01 -7.92380329e-03  4.49547619e-01
  -1.37021944e-01  3.34138483e-01  2.00820372e-01  8.45517695e-01
  -9.59473178e-02  3.18006754e-01 -3.97657871e-01  1.13023646e-01
   3.74912351e-01 -6.76201582e-01  1.00516938e-01 -4.42478389e-01
   2.25812215e-02  3.72288190e-02 -9.44565386e-02 -1.24379627e-01
   1.75584499e-02  2.31995553e-01  8.46486986e-02 -2.64529765e-01
  -1.76530212e-01  1.99389711e-01 -1.35365888e-01  3.04484904e-01
   3.58675152e-01  1.24259263e-01  1.26616791e-01 -1.35059893e-01
   2.18413651e-01 -8.16700049e-03 -1.18672706e-01  1.43626258e-01
   3.17983106e-02 -3.21959704e-02  8.73799443e-01  4.44255397e-03
  -7.35452250e-02  6.18059263e-02  1.62541613e-01 -1.27752021e-01
  -1.48285151e-01  2.02473432e-01 -1.08042605e-01 -7.79138356e-02
   1.70056805e-01 -4.13612604e-01 -4.07002151e-01 -4.85480465e-02
  -4.69410568e-01 -9.70193371e-02  1.33663550e-01  4.73495722e-01
   1.32032633e-01  3.57196271e-01 -8.38239789e-02 -3.26100558e-01
  -1.17083952e-01 -1.18980914e-01 -8.60038698e-02 -1.99856251e-01
   2.43168607e-01  1.32023185e-01 -3.01635474e-01  5.43507934e-01]
 [ 4.76713002e-01 -3.48495722e-01 -2.00412218e-02  4.65726972e-01
  -3.35868597e-01  1.45283952e-01  6.20850265e-01  5.93181014e-01
   1.81748226e-01 -4.32460420e-02  3.19846600e-01 -1.40055241e-02
   5.61712906e-02 -3.39521132e-02  2.03700706e-01 -2.37424433e-01
  -5.79725616e-02  6.12290651e-02  2.32546091e-01 -1.20098293e-01
   3.38327527e-01 -4.67122793e-01 -5.27308047e-01 -4.48151194e-02
   5.69236279e-01 -4.07617360e-01  3.76347154e-01  2.57168055e-01
   1.38564333e-01 -5.84154129e-01 -3.01848538e-02  3.34819444e-02
  -3.35481077e-01  3.01776081e-01  2.42395073e-01 -1.86934575e-01
   4.44917940e-02 -1.57240346e-01  8.08112770e-02  2.71173404e-03
  -1.24840491e-01 -1.89552248e-01 -4.22864437e-01 -6.20338172e-02
  -6.06056601e-02  2.04702362e-01  4.40912902e-01 -6.61666542e-02
  -5.89576840e-01 -4.82911348e-01  9.94941592e-02  4.49881464e-01
  -2.23605528e-01  5.27643263e-01  6.70424402e-01  3.62294048e-01
   4.55205321e-01  3.58897030e-01 -2.17091396e-01 -1.07939392e-01
  -3.21532309e-01 -3.92204039e-02  6.08652607e-02 -2.34661862e-01
   1.49051487e-01  1.77594811e-01 -1.42817080e-01  4.29906964e-01
   1.45914048e-01 -2.44810298e-01 -2.11778596e-01  1.40896499e-01
  -3.16486299e-01  2.74053752e-01 -2.85069466e-01  6.63416609e-02
   1.98816240e-01  3.22418451e-01 -3.60083014e-01  5.49986400e-02
  -8.67501795e-02 -2.10089982e-01  3.38993162e-01  2.68663056e-02
  -5.86904101e-02 -4.66701835e-01  4.18116868e-01 -2.42458716e-01
  -4.36474755e-02  5.02804399e-01 -2.36467823e-01  3.29546809e-01
   9.04596522e-02 -1.59953848e-01  1.77911758e-01  5.13294376e-02
   3.92974401e-03  3.77438396e-01  5.57873309e-01 -2.32877377e-02
   8.27552602e-02  4.08796459e-01  5.08811921e-02  2.61789531e-01
  -1.67602133e-02 -3.92361581e-01  1.77407473e-01  5.32777198e-02
   4.45156265e-03  2.95954227e-01  6.09165370e-01 -2.78574377e-01
  -5.22935510e-01  3.67285520e-01 -1.02174535e-01  2.17935428e-01
  -1.20102607e-01  5.08029580e-01 -3.88066918e-01 -3.15869451e-02
  -1.80605441e-01 -1.40405772e-02 -3.51341814e-01 -1.50981233e-01
  -3.23181242e-01 -2.66434729e-01 -3.40884030e-01 -3.36730003e-01]
 [-4.03139770e-01  2.25865379e-01 -8.58986676e-02 -3.99183948e-04
  -3.48684132e-01  1.47850037e-01  9.93111804e-02 -2.34746728e-02
   1.42916441e-01 -6.93287104e-02  9.59819928e-02  1.36289150e-01
  -3.34850699e-01 -3.03706136e-02  1.21836551e-02  2.05293987e-02
  -1.39149338e-01  2.59073794e-01 -1.69723302e-01  2.29019120e-01
   2.45400563e-01  2.72556007e-01  6.22335039e-02  4.69074160e-01
  -3.35980713e-01 -1.57779738e-01 -8.56373757e-02 -8.22013393e-02
   5.52040160e-01 -2.65643567e-01 -1.08991966e-01 -3.55621129e-01
   2.32361898e-01  5.16299307e-01 -6.63488954e-02  8.59030858e-02
   5.50108738e-02 -4.17403460e-01  4.93523479e-01  2.92212814e-01
   5.08328915e-01 -8.47076625e-02  6.67109340e-02 -5.36307991e-01
   9.72293019e-02  1.83395967e-01 -5.07826030e-01 -6.93922266e-02
  -5.33147931e-01  1.22817151e-01 -3.86451781e-02 -9.76788476e-02
   5.05931377e-01 -1.22712180e-01 -1.26535483e-02 -1.74086422e-01
   8.51794239e-03  7.39897132e-01 -2.57201850e-01 -1.57613918e-01
   3.88902575e-01 -2.45904744e-01 -1.70083433e-01  2.69239724e-01
   4.38255310e-01 -2.01098565e-02  1.93292260e-01  6.99302912e-01
  -1.45378351e-01  1.96098462e-01 -8.99322778e-02  1.05575494e-01
   2.60915428e-01  1.59597695e-01 -2.50236224e-02 -5.18640399e-01
   5.13544828e-02  4.91632670e-02 -8.19806382e-02 -6.24667183e-02
  -2.59553611e-01 -4.50355411e-01  1.35638416e-01  9.52843800e-02
  -1.81524545e-01  4.40767914e-01  3.73210788e-01  9.33087692e-02
   5.14712371e-02  2.42191240e-01 -1.74972042e-01 -9.33407471e-02
   5.43133505e-02 -2.51981616e-01  1.74934700e-01  1.84476420e-01
  -7.64194056e-02  5.94204128e-01  3.68604779e-01  3.19770463e-02
   1.69686332e-01  1.21151380e-01 -5.66565134e-02 -2.51789708e-02
  -4.03728515e-01 -1.54398903e-01 -7.77628422e-02  5.38673475e-02
  -3.23820204e-01 -1.01615250e-01  4.54174951e-02  2.80502260e-01
  -7.57152289e-02 -2.52060801e-01  6.12194315e-02 -9.62440595e-02
  -7.68431008e-01  3.26940984e-01  4.17950243e-01  1.44792333e-01
  -7.05176651e-01 -3.31795484e-01 -3.19910377e-01 -2.03318954e-01
   3.01609263e-02  2.40917593e-01 -3.83018911e-01  3.18215758e-01]
 [ 9.72391814e-02  1.33045232e-02 -1.89202979e-01 -8.19540471e-02
   2.82122433e-01 -6.25843853e-02 -2.50087440e-01 -4.74460982e-03
  -2.84428716e-01 -6.52342141e-02 -5.69950379e-02 -2.69301176e-01
   1.83240071e-01  6.17240695e-03  4.11464036e-01  2.18092278e-02
   2.82305807e-01  1.62242919e-01  6.44019902e-01  4.04251777e-02
   2.20274478e-01 -1.68541223e-01 -1.36859380e-02  1.38033539e-01
  -7.92384446e-02  4.00853723e-01  1.45576999e-01  2.84744740e-01
  -2.32450813e-01 -4.05296311e-02  1.85401157e-01 -1.39694303e-01
   4.22753006e-01 -1.28866032e-01 -5.09389043e-01  1.48820236e-01
  -2.20907498e-02  2.28640795e-01  1.70199931e-01 -3.30131166e-02
  -8.07860419e-02 -4.41103101e-01 -7.26221083e-03  1.61696389e-01
   3.14446867e-01  3.95340085e-01 -5.87479889e-01 -3.00523639e-02
   2.07109421e-01 -3.25086534e-01  8.18891302e-02 -1.73225310e-02
  -9.18327048e-02 -2.85302967e-01 -1.67193890e-01 -3.01661193e-01
   2.55164266e-01 -3.63195300e-01  1.53952181e-01 -3.00561637e-01
   1.66189700e-01 -2.21279815e-01 -7.68388733e-02  1.67540476e-01
   4.08990353e-01  1.52583137e-01  3.99925001e-02  2.53836870e-01
   4.24238443e-01 -1.19233429e-01 -1.63464949e-01  2.12879077e-01
   1.60970494e-01 -9.81979609e-01  6.66829109e-01 -3.83708887e-02
  -7.32042313e-01  1.80072617e-04  1.77439842e-02 -1.52015328e-01
  -3.19011807e-01  5.63653186e-02 -2.61776507e-01 -2.94080436e-01
   4.07789424e-02  7.95705914e-02  1.46064386e-01  5.60491644e-02
   1.87149063e-01 -2.43254006e-01 -1.50120080e-01 -7.96189085e-02
   5.31823277e-01 -4.37372863e-01  2.74542660e-01  3.38635415e-01
   2.45669857e-01 -1.87075511e-02 -1.43997416e-01 -1.47268800e-02
   1.31135210e-01 -1.76594287e-01 -1.75058857e-01 -8.74158889e-02
  -2.88397253e-01 -1.70828775e-02 -2.37572923e-01 -6.70075864e-02
   3.07452232e-01 -1.07634276e-01 -1.90301597e-01 -3.10266186e-02
  -6.76128939e-02 -1.21190041e-01  1.49773255e-01  1.58608019e-01
   2.65634600e-02  5.29604256e-02 -3.75343621e-01 -2.05317155e-01
   1.13357067e-01 -2.16712072e-01  8.10291991e-02  3.23327705e-02
   2.92688668e-01 -1.15657151e-01 -6.78348243e-01  1.94713116e-01]
 [ 3.08463871e-01 -6.82303309e-02 -2.99731761e-01 -3.37107152e-01
   1.41840234e-01  5.21167576e-01  3.80164564e-01  4.92768109e-01
  -3.93860638e-01 -5.76407835e-02  1.02933504e-01  5.03088415e-01
   5.60989380e-02  3.41077805e-01 -2.71855414e-01  2.77299387e-03
   2.13281780e-01 -3.77878517e-01  7.82692526e-03 -2.13094935e-01
  -4.01426554e-02  5.00832237e-02 -1.73763916e-01 -4.81876969e-01
   1.96424216e-01 -1.03761524e-01  2.85087675e-01  3.41527998e-01
   3.89322191e-01 -9.24476981e-01 -3.85992855e-01 -3.34821083e-02
   1.31755337e-01  1.14694238e-01 -6.33668661e-01 -6.42916411e-02
  -7.05292914e-04  2.16867283e-01  4.46896464e-01  4.21654165e-01
  -1.49976477e-01 -3.14156055e-01  1.78849250e-01  3.24393511e-01
   1.33889616e-01 -8.60962570e-02  1.47639319e-01  3.05699587e-01
  -3.63135934e-01 -1.55453375e-02 -1.05271906e-01  4.13968921e-01
   5.42039633e-01  2.73890555e-01  7.19139159e-01  2.21523732e-01
   1.11672640e-01  2.41851971e-01 -1.18015207e-01  2.88957953e-01
   8.09144229e-03  8.60693604e-02 -2.59380668e-01  7.07434416e-01
  -3.89247030e-01 -9.67204869e-02 -1.37171969e-01  5.22043109e-01
   4.83269721e-01  2.14790508e-01 -4.21801656e-01  4.07660306e-01
  -5.49406186e-03 -3.11738670e-01 -4.39984709e-01  7.77832121e-02
   2.95959324e-01  5.99430390e-02 -2.10063219e-01 -1.50576653e-02
  -3.45208675e-01 -6.31391883e-01  1.91554904e-01  4.76114213e-01
  -5.19290805e-01 -5.85111916e-01  2.08029658e-01 -2.09211633e-01
  -3.32460105e-01 -3.00852191e-02  2.17212990e-01 -4.98291254e-01
  -3.39497402e-02  1.39622450e-01  4.72420126e-01  2.79077470e-01
   1.22505844e-01  4.56621885e-01  3.23043972e-01 -1.72080602e-02
   7.12066330e-03  5.93873262e-01 -1.30997136e-01  4.40182090e-02
  -2.71246791e-01 -5.62210418e-02  4.14593853e-02  4.32487391e-03
  -3.45261782e-01  8.03681195e-01  1.49296165e-01 -1.64849520e-01
   4.03226376e-01  1.70946330e-01  1.30243853e-01  1.61829352e-01
  -2.06120312e-01 -2.03323271e-02  4.01934326e-01  2.58024365e-01
  -6.95925176e-01 -1.17351234e-01 -6.68580353e-01 -4.45666164e-01
   4.14607786e-02  1.39962524e-01 -5.01028478e-01  2.53100485e-01]
 [ 2.65723735e-01 -2.22518921e-01 -1.19781150e-02 -8.29892382e-02
  -2.67876625e-01  1.13747492e-01  1.82365980e-02  2.62697995e-01
  -3.70789915e-01  2.42007505e-02  1.09579995e-01 -2.99778953e-02
  -3.13279927e-01  1.35158196e-01 -9.44613293e-02 -7.43625546e-03
  -1.17926989e-02  2.14469120e-01  1.32444158e-01  3.08148861e-01
   2.71189868e-01  4.30619150e-01  3.38208467e-01  1.54461443e-01
  -8.55074078e-02 -8.92140567e-02  4.39800173e-01 -1.64879821e-02
   1.15629531e-01 -1.24177292e-01 -1.34712353e-01 -2.33858470e-02
  -2.96027303e-01 -2.01713711e-01 -1.49296343e-01  4.15357143e-01
  -3.30356061e-02 -3.50237280e-01  4.44089472e-01  1.17306441e-01
  -1.39770538e-01 -2.66371518e-01 -2.46269673e-01 -2.20846087e-01
   1.71647727e-01 -1.42115355e-01 -1.16249077e-01  5.40279984e-01
   2.40472719e-01  2.61137933e-01 -5.01187779e-02 -2.79908568e-01
   3.36781770e-01  8.02611485e-02  1.66721329e-01 -5.92169985e-02
  -7.10592121e-02  2.96253651e-01  1.19447403e-01 -4.67086345e-01
   2.09462821e-01  1.38516426e-01 -1.34110330e-02  3.06251615e-01
   1.63269430e-01  2.92623758e-01  3.08455527e-01  6.56743050e-01
   2.89240122e-01 -1.10671818e-01 -1.32362335e-03  5.15593253e-02
   2.14146692e-02 -2.65620947e-01  8.57082605e-02 -1.46704972e-01
   9.12003368e-02  3.34375143e-01  1.29893199e-01  1.25021413e-01
  -1.63169965e-01 -4.34591383e-01  7.86639750e-02  2.77638823e-01
  -9.17702839e-02 -4.70154464e-01  5.51819623e-01 -3.63019615e-01
  -2.05767304e-01  1.12745546e-01  1.30078578e-02  7.82313049e-02
   6.63723946e-02  1.02305254e-02  2.11612538e-01  1.12239167e-01
  -6.46334933e-03  2.95968890e-01  3.20349097e-01  3.16715706e-03
   1.47179291e-01 -2.83146147e-02  8.11150149e-02 -1.42042354e-01
  -9.02675614e-02 -7.89777189e-03  2.03450873e-01 -7.38809183e-02
  -1.91334084e-01  1.42373204e-01  2.54747510e-01 -2.09980071e-01
  -4.34260778e-02 -9.58927944e-02  3.08860660e-01  2.60260493e-01
  -4.42343205e-01  1.64645731e-01  1.69504166e-01 -3.58660042e-01
  -5.41043933e-03 -9.51334611e-02 -2.11184263e-01 -2.94907123e-01
   4.85356838e-01  2.43685901e-01 -4.59034383e-01 -1.72599807e-01]
 [ 4.92960840e-01  7.90261105e-02 -2.21161693e-01 -4.11893785e-01
   1.26608729e-01 -1.51314652e-02  3.83681625e-01  4.44020331e-01
  -2.14343429e-01 -1.94098130e-02  3.36399376e-01  2.74946630e-01
   5.04723266e-02 -2.07464889e-01 -5.13104558e-01 -1.94421813e-01
  -3.28608990e-01  2.32875034e-01 -5.10126531e-01 -4.83244240e-01
  -1.00692779e-01  2.16091871e-01 -3.37650090e-01  4.44095463e-01
  -1.18824221e-01  1.41222566e-01  3.51128340e-01 -3.35527837e-01
  -3.36414874e-02 -4.85160977e-01 -5.92391044e-02  2.83842444e-01
  -2.03523293e-01 -1.03974305e-02 -3.24000001e-01 -1.58866078e-01
  -1.60125811e-02 -1.23946249e-01  5.85403979e-01  2.95960337e-01
   4.41210955e-01 -2.65979677e-01 -3.55061233e-01 -1.58142179e-01
  -1.00647971e-01 -3.83503526e-01 -9.18516070e-02 -2.90225521e-02
  -1.08125344e-01  1.15647629e-01  1.37329578e-01  3.65495354e-01
   1.02680914e-01 -8.03682506e-02  2.67545711e-02 -3.29989105e-01
   4.67336386e-01  1.16571225e-01  1.64037049e-01  9.67229456e-02
   3.17570150e-01 -3.63951474e-01 -3.26730222e-01  1.94788232e-01
   4.04963732e-01  3.67670774e-01 -3.19135875e-01  1.75944045e-01
  -2.62135323e-02  1.82898223e-01 -2.37077683e-01 -3.56291682e-01
  -3.78064543e-01 -3.10529739e-01 -3.38222414e-01  2.16520697e-01
   1.87050048e-02  3.63652378e-01  3.95857915e-03 -1.31046802e-01
  -1.02870055e-02 -2.55024523e-01 -1.96143729e-03  2.47544885e-01
  -1.83163464e-01 -1.96407154e-01  1.87073484e-01  4.19094786e-02
  -1.41861230e-01  2.46059507e-01 -1.76558197e-01  2.88615972e-01
   2.81438325e-02 -4.76331294e-01  7.40416721e-02  1.36245042e-01
  -1.22801110e-01  2.79449821e-01  4.12025988e-01 -1.13621876e-02
   3.24086457e-01  1.08963042e-01 -5.77169210e-02  3.76614988e-01
  -5.98698705e-02 -1.77240014e-01 -1.53674930e-01 -1.98384635e-02
   1.30843177e-01  4.67649382e-03 -8.58466923e-02  1.83704093e-01
  -2.85542786e-01  9.24971998e-02  4.72737700e-01  1.76832318e-01
  -2.64850050e-01  1.03190005e-01  3.67956281e-01 -1.49044678e-01
  -1.99416637e-01 -7.29889125e-02  1.70517340e-01 -3.80415954e-02
  -4.67450172e-01 -4.74007010e-01  4.38268110e-02 -1.20679334e-01]
 [-5.68355024e-01  1.32554099e-01  8.26212838e-02 -1.15247220e-01
  -1.96638256e-01  7.59223923e-02 -1.29401907e-01  2.68112093e-01
  -1.62346512e-02  7.65705705e-02 -2.21165195e-01  2.30375856e-01
  -1.58040687e-01  3.96143377e-01  3.31159383e-01  2.17810214e-01
  -2.85514563e-01 -5.17937243e-01 -4.62657094e-01 -3.55449319e-01
   1.29118234e-01  3.25189084e-01 -1.87547907e-01 -6.92131594e-02
   5.50919712e-01 -8.71692002e-02  4.52516556e-01  4.22680616e-01
   2.71024108e-01 -3.77110779e-01 -2.29461715e-01 -3.41003776e-01
  -1.42755046e-01  1.46337822e-01 -2.02798992e-01  1.88179225e-01
  -2.69555412e-02  2.17579715e-02 -1.90620854e-01 -2.45149266e-02
  -9.62683931e-02 -2.85113841e-01  3.80431116e-01  8.46955106e-02
  -1.57500207e-01  1.50760174e-01 -4.19426352e-01  5.06298244e-01
  -2.49441594e-01  3.14851642e-01  7.37962499e-03 -2.21945256e-01
   2.54042327e-01 -9.61657315e-02 -2.76104540e-01 -3.42900425e-01
   4.86335248e-01  5.85259259e-01 -5.09891361e-02  1.82304233e-02
   6.91202655e-02 -2.09040254e-01 -1.97679341e-01 -2.10858025e-02
  -1.30901262e-01 -3.21423352e-01  1.29233301e-03 -3.69592190e-01
   3.12471436e-03  4.48859513e-01  1.23534501e-01  2.01732740e-01
   2.04395190e-01 -2.33166590e-01  2.82992691e-01 -3.77169192e-01
   9.88084525e-02 -1.41534284e-01  1.85694337e-01  3.16016197e-01
   9.31115076e-02 -1.62278846e-01  3.16419452e-01 -1.54557839e-01
   3.16015482e-01  3.46402884e-01  1.90175444e-01  2.78291941e-01
   2.07420737e-02  3.59659344e-01  3.18109393e-01  1.44462451e-01
   3.15538675e-01  2.66063631e-01  4.26521748e-02  4.00047064e-01
  -3.43228906e-01  1.29316062e-01  1.31068183e-02 -6.83399364e-02
   1.21544793e-01  6.43850923e-01  1.14521533e-01  1.74299851e-01
  -3.09261858e-01 -2.24722266e-01  1.92263275e-01 -4.46495786e-02
  -4.17397946e-01 -3.50674629e-01  1.52023628e-01 -4.03933555e-01
  -2.49616876e-01 -4.00168389e-01 -2.02601254e-01  1.91464990e-01
  -6.38015419e-02  5.88521421e-01  2.83792555e-01 -3.44164640e-01
  -4.25687402e-01 -4.00388807e-01  8.16182494e-02 -1.23692960e-01
  -3.49397928e-01 -4.49672967e-01 -9.07291397e-02  1.91550925e-01]
 [ 1.44791245e-01  1.78822935e-01  2.53315955e-01 -1.31239504e-01
  -3.36024649e-02  3.60133946e-01  5.92310071e-01  3.23470473e-01
   1.16875187e-01 -1.13027319e-02  4.94164377e-01 -7.69786015e-02
  -4.70745325e-01 -1.87357873e-01  1.72793314e-01  1.42325878e-01
  -5.32812774e-01  1.61468741e-02 -2.14148074e-01 -5.01287878e-01
   4.28291000e-02 -5.01517840e-02 -2.94290334e-01  7.82982782e-02
   1.93052888e-01 -1.00228921e-01  6.12337470e-01  2.91977972e-01
   4.93859112e-01 -2.98058271e-01 -3.89063269e-01  1.89316958e-01
  -2.41230860e-01  4.94529232e-02 -4.65316832e-01 -2.06036374e-01
  -7.48973936e-02 -3.04089189e-01  3.38893831e-01  3.91576260e-01
   3.96362096e-01 -6.07198030e-02 -2.96296418e-01 -4.24116850e-01
  -1.42923042e-01 -2.42690276e-02  6.29654154e-02  3.16844434e-01
  -3.28989178e-01  1.04452811e-01  7.39680324e-03  3.12828749e-01
   2.64273673e-01 -2.22559879e-03  1.87796414e-01 -2.10096553e-01
   6.25341892e-01  2.88299799e-01  2.28307635e-01 -3.20116282e-01
  -3.70473206e-01 -1.71465367e-01 -2.56626964e-01  1.60232052e-01
   2.19633833e-01  1.65283233e-01 -2.67027020e-01 -1.32852092e-01
  -3.22423965e-01  2.89746553e-01 -2.72747725e-01  1.48830656e-02
   1.71425864e-01 -4.25436497e-01 -1.02743968e-01 -3.79026175e-01
   2.24059939e-01  4.90250707e-01 -3.64521705e-02  1.09865449e-01
  -1.94053173e-01 -1.66855469e-01 -3.01424891e-01  4.36326474e-01
   1.25833541e-01 -1.56395778e-01  6.70172513e-01 -1.08045444e-01
  -6.06065467e-02  1.90539166e-01 -1.44206891e-02  2.77675331e-01
  -1.52645499e-01  4.87955846e-03  4.02758002e-01  1.22741371e-01
   1.35468960e-01  6.05891645e-01 -8.41854736e-02 -9.57984012e-03
   5.38311936e-02  1.71596169e-01 -5.72860502e-02 -4.79152566e-03
  -2.85959721e-01 -9.88400877e-02  1.22708812e-01  4.21413630e-02
  -1.68041140e-01  2.49131829e-01  2.48873338e-01  2.09489822e-01
  -5.36318481e-01  4.17082123e-02  1.28975555e-01  1.39400527e-01
  -1.82067767e-01  2.83014923e-01  2.78630823e-01 -2.51497030e-01
  -2.96975106e-01  3.43232639e-02 -1.32534608e-01  3.33633155e-01
   5.87074272e-02 -4.81420159e-01  2.35163942e-02  4.10204858e-01]
 [ 3.51046950e-01 -8.38661492e-02  1.47857621e-01 -1.14826001e-01
  -2.73730814e-01  5.67467436e-02  3.82626951e-01 -1.00747742e-01
   7.05938160e-01  1.21412054e-02  2.84067929e-01  2.05517441e-01
  -8.14060494e-02 -2.38792032e-01 -1.41167179e-01 -2.03877166e-01
  -2.50117123e-01  4.45585325e-03 -3.78372937e-01 -4.64107245e-01
  -1.92815036e-01  3.34555537e-01  4.89309281e-02  2.50163496e-01
  -1.90102577e-01  2.91231245e-01  3.26230168e-01  5.36582731e-02
   2.52176136e-01 -4.70989376e-01 -2.96212137e-01  5.21304011e-02
  -1.96386948e-02 -1.13604829e-01 -1.43718952e-02 -2.79442519e-01
  -3.94532224e-03 -3.49527568e-01  3.56218308e-01 -1.58012629e-01
   4.38804716e-01 -2.89467573e-01  1.33884445e-01  2.34976724e-01
  -1.29493967e-01  1.60547614e-01 -4.46610935e-02 -2.08267063e-01
  -2.64008969e-01  2.22586975e-01  6.71089292e-02 -1.11561134e-01
  -2.53913641e-01  6.83607534e-02 -3.09115171e-01 -1.70684814e-01
   2.41410241e-01 -4.94253542e-03 -3.18706930e-02  5.50594449e-01
   1.10675044e-01 -2.59159803e-01  8.77164453e-02  2.92332202e-01
   2.23046511e-01  2.92470902e-01  1.54066443e-01 -1.24792635e-01
  -3.64712030e-02 -2.63054743e-02 -1.76891178e-01  1.09586842e-01
   7.16644078e-02 -1.67673722e-01 -3.22532237e-01  1.08424336e-01
  -1.44459680e-01  1.83211774e-01 -1.72832087e-01 -1.12998933e-01
  -3.77307311e-02 -1.41353488e-01  2.85424870e-02  7.73354396e-02
  -3.45972851e-02  8.84600729e-02  3.36793780e-01  1.22879766e-01
  -4.56232615e-02 -3.24953109e-01 -2.83971548e-01  1.80104263e-02
  -4.58049215e-02 -1.41808584e-01  3.59753929e-02  3.55241969e-02
  -3.90004031e-02 -1.85676794e-02  2.94041932e-01  3.91978212e-02
   4.40250278e-01  9.80042815e-02 -1.38991877e-01  3.48226696e-01
  -2.26359703e-02 -1.01802841e-01 -3.35415632e-01  3.36849391e-02
   9.19369012e-02 -3.58809270e-02  5.04264459e-02  3.81770253e-01
  -1.83129996e-01  1.99221566e-01  1.53479025e-01  3.83345480e-03
   2.46625140e-01 -1.66181549e-01 -4.33405414e-02  6.45558387e-02
  -1.54337034e-01 -9.33440253e-02  5.43077290e-03  4.35513020e-01
  -3.24830979e-01 -3.62968415e-01 -4.50005196e-02  2.15226058e-02]
 [ 1.79809198e-01  5.46417594e-01  3.13120037e-02 -1.12194002e-01
  -1.84874430e-01 -1.85028777e-01  3.05985808e-01 -2.27604911e-01
   1.22633077e-01  1.36765754e-02  1.83689073e-01  3.59557807e-01
  -6.18968830e-02 -6.51278734e-01 -5.07808447e-01 -2.65169702e-02
   1.70925409e-02  4.13127057e-02 -1.73650607e-01  2.11787894e-01
  -1.88982755e-01  1.75068408e-01  1.86904892e-01 -3.91214564e-02
   2.56713688e-01 -5.20299852e-01 -9.46446881e-02 -2.70918727e-01
  -1.06155604e-01  5.28505564e-01 -2.84881532e-01 -1.36874318e-01
   3.07701707e-01  1.62071828e-02  2.38010377e-01 -3.69762629e-01
  -2.88499184e-02 -3.75369936e-01  9.41200834e-03  3.41501497e-02
  -2.79504266e-02  6.13149367e-02  2.33507410e-01 -2.06744775e-01
  -5.46865575e-02 -3.83762211e-01  4.71264780e-01  2.74794906e-01
  -4.63632226e-01  3.10777098e-01  2.58639723e-01 -1.14477508e-01
   2.50711828e-01 -1.85879335e-01 -3.12018573e-01  2.19895929e-01
  -1.10029571e-01  6.26750365e-02  1.07788227e-01 -4.04026419e-01
   4.17295545e-02  3.05270314e-01 -8.50396529e-02 -1.37889132e-01
   1.14068203e-01 -2.36246914e-01  1.68416500e-02  2.40884215e-01
  -6.09268248e-02 -2.08851919e-01 -2.09336981e-01  2.14330465e-01
   1.76615790e-01 -4.42796379e-01 -4.15987879e-01 -1.86632841e-03
   1.34076223e-01 -7.06502348e-02 -1.01397172e-01 -3.55133176e-01
   1.66870710e-02  4.13663954e-01  3.48315865e-01  1.71026569e-02
   2.12530836e-01 -1.52319908e-01 -1.61786690e-01 -1.87219918e-01
  -1.08717151e-01 -3.87640372e-02 -1.92745820e-01  3.04661822e-02
  -2.39070535e-01 -1.04223445e-01 -2.59259820e-01 -4.23770957e-02
  -1.41190797e-01 -8.36689472e-01  3.95728171e-01 -6.06191121e-02
  -4.06060338e-01 -3.33218604e-01  1.26450598e-01  2.73187548e-01
  -1.96376756e-01  4.95831540e-04 -3.63409847e-01  6.20152205e-02
   3.75134870e-02 -3.26844454e-01 -4.68174666e-02  2.41916299e-01
   8.66328478e-02  1.94981098e-01  1.84369966e-01 -2.63153076e-01
   1.67786051e-02 -3.40866186e-02 -4.99717385e-01 -2.08129108e-01
   2.34830737e-01  1.78219274e-01 -3.75763327e-01  3.86402130e-01
  -8.20973665e-02  3.08415852e-02  7.20072389e-02 -5.60727119e-01]
 [-9.33473036e-02 -6.56203851e-02  2.01482564e-01 -1.36074172e-02
  -3.58135432e-01  2.06801686e-02 -3.37046206e-01 -3.47343653e-01
   1.61207214e-01  4.40063216e-02  3.20095778e-01  6.93167523e-02
   1.39400631e-01 -8.66860569e-01  3.18976074e-01  2.77147502e-01
  -1.66422665e-01 -3.49135324e-02  4.29164320e-01  1.74684197e-01
   2.96593785e-01  3.88837270e-02 -1.88902333e-01 -2.41372269e-02
  -4.60644752e-01  1.88238621e-01  1.63073301e-01  3.08630392e-02
  -6.25712648e-02  5.10989130e-01  1.93334699e-01 -1.31452386e-03
   3.81621033e-01 -4.96917404e-02  1.12988412e-01  6.92591369e-02
  -7.52765536e-02 -1.63543865e-01 -4.61666405e-01  1.28390446e-01
   1.88814133e-01 -1.32011205e-01  1.09390698e-01 -2.98624873e-01
   2.70775944e-01  5.38483620e-01 -2.75563180e-01 -8.07282552e-02
  -4.07064587e-01 -1.52485207e-01 -9.09119546e-02  3.34574692e-02
   4.05959040e-01  1.52447775e-01 -3.34258109e-01  1.56197146e-01
   1.70875192e-01 -1.86075658e-01  2.51293987e-01 -3.17347467e-01
  -2.20759004e-01 -1.34725040e-02 -1.82692811e-01 -2.68479884e-01
   3.64489675e-01 -2.38673329e-01 -1.17976535e-02 -7.65681714e-02
  -1.62632793e-01 -1.05943471e-01  1.58167735e-01 -2.29976729e-01
   3.40706915e-01 -1.94170848e-01  3.76312077e-01 -2.52075702e-01
  -3.69796455e-01  4.73484784e-01 -1.22145519e-01  8.06559697e-02
   1.20746486e-01  4.41577226e-01 -2.62859687e-02 -3.55912358e-01
   3.94430608e-01  1.14870466e-01 -1.71024665e-01  5.31796634e-01
   2.43710667e-01  4.49132286e-02 -2.41702810e-01  7.25346878e-02
  -1.09234918e-02 -1.95669234e-01 -1.81758836e-01 -3.83356988e-01
   2.26698950e-01 -5.44202507e-01 -9.34925750e-02  3.20833512e-02
  -3.61640751e-02 -7.75050402e-01 -1.39655918e-01 -8.89217928e-02
   1.61835164e-01  1.35672882e-01 -3.84548336e-01  4.59666029e-02
   8.66566524e-02 -5.28439045e-01 -3.16850245e-01  2.38121361e-01
  -1.03782848e-01 -2.60686785e-01 -4.48262632e-01 -3.24805230e-01
   3.82416487e-01  2.47188240e-01 -1.63545176e-01 -4.49804842e-01
   2.86226779e-01  1.29305780e-01  3.71169657e-01  2.06426978e-01
  -1.25801891e-01  3.89700085e-01 -1.83790937e-01 -5.38757145e-01]
 [-2.64885128e-01 -1.44144922e-01  5.08745313e-01  2.39623085e-01
   5.88865057e-02 -1.39740229e-01 -9.44574773e-02 -1.32170752e-01
   4.78512533e-02 -7.98188746e-02  6.41634911e-02  7.81975538e-02
   1.16384231e-01  2.08620220e-01 -2.24157244e-01  4.10581887e-01
   1.80577099e-01  1.87802762e-01 -3.63049537e-01  5.90650588e-02
   7.63139725e-02 -7.07970411e-02 -2.41544738e-01  9.70510468e-02
  -5.64425066e-02  2.20457464e-01  1.72679558e-01 -1.38437763e-01
   2.01254725e-01 -7.41575137e-02  4.82133150e-01 -3.06467682e-01
   2.98821747e-01  4.73305583e-01  1.73482969e-01  2.38709301e-01
  -2.14536786e-02 -2.61068583e-01 -3.30528975e-01 -1.10852458e-01
   1.76622849e-02 -9.94144082e-02  2.39501938e-01 -3.86223793e-01
   5.18247969e-02  5.76675721e-02 -4.59321946e-01  1.70642417e-02
  -4.02212679e-01  6.93635494e-02 -2.49823898e-01  5.05469665e-02
   7.48215258e-01 -1.19973138e-01 -1.17634319e-01  2.79748648e-01
   3.07285666e-01  2.72664011e-01 -1.77588999e-01 -2.62381345e-01
   2.64424249e-04 -4.14185852e-01 -1.71784744e-01 -1.14371493e-01
   3.16334218e-01 -2.72312611e-01  2.44694889e-01  1.51507005e-01
   1.38697371e-01 -1.63963035e-01 -1.35543853e-01 -4.71923538e-02
   4.39166248e-01  4.06646691e-02  4.96806717e-03 -1.48469687e-01
  -3.46830934e-01 -7.76181519e-02 -4.39439148e-01 -2.43713155e-01
   6.52539060e-02  3.68037969e-01 -1.28572984e-02 -6.75818324e-01
  -8.07572976e-02  6.92942739e-01 -6.69247583e-02  7.26054981e-02
   6.37139797e-01  3.47328372e-02  8.26761499e-02 -5.69962375e-02
   1.80684671e-01 -2.77378738e-01  1.35574356e-01  9.41531919e-03
   1.39224052e-01 -3.56718928e-01  3.22285630e-02  6.30156249e-02
   3.39979410e-01 -7.85659477e-02 -2.24097833e-01 -1.06629737e-01
   2.33035520e-01  2.87621319e-01 -3.93668681e-01  6.57740235e-02
   3.97088706e-01 -6.05883002e-01 -3.26024801e-01  5.33525169e-01
   2.84450859e-01 -1.12328358e-01  2.83342242e-01  8.33776444e-02
   3.56478579e-02  1.84454143e-01 -2.88230300e-01  3.76021266e-01
  -5.11095464e-01 -1.27098888e-01  3.24644983e-01  2.94665873e-01
   6.26038089e-02  2.48990238e-01 -1.56524777e-01 -1.38554752e-01]
 [-3.31615388e-01 -1.49818063e-02 -1.29035190e-02  1.65382862e-01
   3.13742042e-01 -2.45925948e-01 -1.04425102e-01 -4.92922328e-02
   3.52306515e-01 -2.09947559e-03 -9.07214954e-02  3.31919134e-01
   3.43797728e-02 -1.74113423e-01 -3.46025109e-01 -1.10151514e-01
   5.17354369e-01  6.40086412e-01 -3.66656423e-01  1.16768569e-01
  -3.51030946e-01  1.63711742e-01 -1.30904719e-01  5.86167462e-02
  -4.27984744e-01  1.34366393e-01 -7.80827478e-02 -5.54441750e-01
  -2.90317744e-01  1.93128556e-01  3.54868114e-01 -3.55341822e-01
  -1.39996201e-01 -1.51622668e-01  2.04097822e-01 -4.72549438e-01
   3.46386656e-02 -4.81597185e-01  7.15954676e-02  5.01561575e-02
  -8.28865692e-02  7.54925758e-02 -3.44286263e-01 -1.00241182e-02
  -1.43338814e-01 -3.34768325e-01  2.48412117e-02 -7.22548738e-02
  -2.45435566e-01 -2.96981148e-02  4.44977395e-02 -2.09007978e-01
   3.30904096e-01  1.15025155e-01 -2.45673627e-01  2.43765861e-01
   9.40240398e-02  5.19450843e-01  1.57109395e-01 -1.29987253e-02
  -3.52832854e-01 -1.36644021e-01  1.86774030e-01 -2.43846446e-01
   4.21611339e-01 -2.45422915e-01 -8.27941671e-02  3.87747228e-01
   1.26341209e-01 -5.29506564e-01 -1.86807394e-01  1.04083173e-01
  -1.02948025e-01  4.39229002e-03 -3.46874714e-01  1.82242543e-01
  -2.93587267e-01 -1.86120600e-01 -4.45770979e-01 -2.97583342e-01
   1.72802135e-01  1.68293230e-02  1.97573513e-01  1.55654270e-02
   8.99461135e-02  4.24698174e-01  2.86519259e-01 -2.85218537e-01
  -3.10862307e-02 -4.76016790e-01 -2.28866220e-01  1.10574059e-01
   6.19044416e-02 -2.14108989e-01  5.23834348e-01 -4.49035108e-01
  -2.62964666e-01 -5.65807939e-01 -5.71829602e-02 -4.01004143e-02
  -5.28429225e-02 -3.85477692e-01  3.57080251e-02 -4.53210950e-01
   6.45113230e-01  6.69758841e-02 -1.84101671e-01 -4.72587571e-02
   5.00161827e-01 -3.19129616e-01 -2.17682093e-01  5.23805916e-01
   1.02223903e-01 -2.55063530e-02  1.14741668e-01 -1.79816246e-01
   4.64721024e-01 -4.50779013e-02  1.46510169e-01  2.26451963e-01
  -5.98015916e-03 -2.17237353e-01  1.50637791e-01  9.24773589e-02
  -6.54074401e-02 -9.12471339e-02 -4.92430553e-02 -4.97487970e-02]
 [-2.56079942e-01 -7.20742866e-02  2.30798230e-01 -1.15850605e-01
  -2.93656826e-01  1.31839454e-01  3.39506179e-01  2.21209764e-03
   5.42690217e-01  7.20056053e-03  2.79090196e-01  1.89793140e-01
  -2.09610730e-01 -6.18186109e-02  3.17405425e-02 -4.78464924e-02
   1.19170569e-01  4.12852615e-01 -4.30818647e-02  9.02127251e-02
  -4.27670851e-02 -1.77943513e-01  1.31668732e-01 -2.88680643e-01
  -1.91654176e-01 -1.82571739e-01  3.10759515e-01  1.09575972e-01
   4.39817309e-01 -1.18278060e-02 -7.69990310e-02 -2.24847138e-01
  -2.21543387e-01  2.58559316e-01  2.54393637e-01  1.55359581e-01
  -6.93250373e-02 -2.60750830e-01 -1.39706478e-01 -2.43329421e-01
   1.56323358e-01  9.70780700e-02 -2.13756040e-01 -1.15423858e-01
   2.60449853e-02  4.22035344e-02 -7.73300976e-02  1.12406544e-01
  -3.91885370e-01 -7.50552341e-02 -1.09199822e-01 -6.11959100e-02
  -1.15026474e-01 -1.28250316e-01 -3.65648195e-02  2.70065933e-01
   4.07002896e-01  2.17735484e-01 -1.20708555e-01  6.81220889e-02
  -1.10619709e-01 -1.69007145e-02 -1.85862467e-01 -2.66531765e-01
   1.97413892e-01 -5.22419691e-01  8.49686489e-02 -2.19812125e-01
   7.62154087e-02 -1.45432577e-01 -1.85245648e-01  3.28301877e-01
  -9.21164379e-02  1.51641238e-02  2.95367628e-01  2.45000701e-02
  -5.51561974e-02  1.46537036e-01 -3.95533830e-01 -1.07007287e-02
   5.73485298e-03  2.44632035e-01  4.43933725e-01 -1.05226249e-01
   5.22895232e-02  1.61508679e-01  3.37673485e-01 -1.65445462e-01
  -2.23371729e-01 -6.32367209e-02 -3.21591794e-02  3.31875116e-01
   1.10375367e-01 -8.90223160e-02  1.12060912e-01  3.87954488e-02
  -3.81591648e-01 -3.04231435e-01 -2.57578254e-01 -5.14305420e-02
   1.31719202e-01 -1.84472933e-01 -1.92082241e-01 -2.20715161e-02
   1.76814020e-01 -4.54716980e-02 -2.79444367e-01  4.41114232e-02
  -1.74744233e-01 -8.52344185e-02 -1.59285203e-01  9.78783742e-02
   3.32309976e-02  1.18832421e-02  3.35673064e-01 -5.02788015e-02
   7.49196038e-02 -1.41619936e-01 -3.19757879e-01  1.82214648e-01
  -2.89263338e-01 -2.61700805e-02 -1.55049950e-01  3.50443751e-01
   1.95333585e-02  3.78535204e-02  3.21772732e-02  4.94375490e-02]
 [-1.99051902e-01  1.01706453e-01  3.42449218e-01 -2.81595662e-02
  -4.38756049e-01  7.06915110e-02  1.44914210e-01 -4.24716473e-01
   2.06397727e-01 -3.81170623e-02  4.16579247e-01  1.72745675e-01
  -1.44137368e-01 -4.79682565e-01  1.78966701e-01  3.18951190e-01
   2.34741136e-01  2.30034217e-01 -6.42189458e-02 -3.07322703e-02
   3.02080512e-01 -1.93043739e-01 -8.62960666e-02 -3.37909222e-01
  -2.51412660e-01 -2.66214222e-01 -2.60238677e-01 -2.81506270e-01
   2.60656089e-01  2.62349099e-01  1.78142726e-01 -3.07526197e-02
  -4.58225645e-02  1.03856083e-02  1.38770249e-02 -3.13548863e-01
   3.27897295e-02 -3.12073380e-01 -2.75543600e-01 -9.09017120e-03
  -1.01097822e-02 -1.33625254e-01  1.28136098e-01 -4.28708524e-01
  -1.96007058e-01  9.21099484e-02  3.25591229e-02 -9.10497084e-02
  -2.50268102e-01 -8.25077146e-02 -1.32281944e-01  3.20979804e-02
   2.25733846e-01 -9.09034610e-02 -2.49119043e-01  3.27147990e-01
   2.75406420e-01 -1.58644974e-01 -1.69948712e-01 -1.58296406e-01
   8.41939822e-02 -6.74425215e-02  1.28669262e-01 -4.36012596e-01
   2.30471149e-01 -3.54695827e-01 -4.15792525e-01 -1.40990883e-01
  -2.75084958e-03 -1.07752249e-01 -9.78130773e-02  2.32699543e-01
   7.45510906e-02 -1.92894693e-02  4.64585647e-02 -1.23038545e-01
   8.32249150e-02  2.47892931e-01 -5.10402143e-01  3.41115110e-02
   7.65536539e-03  2.68424302e-01  1.52084157e-01 -9.63632241e-02
  -2.43042186e-01  9.02853906e-02  3.42752904e-01  1.55158922e-01
  -9.59919393e-02 -2.74220705e-01 -2.18747839e-01  8.06511566e-02
   1.04929253e-01 -3.35639380e-02  1.66499615e-02 -2.45245814e-01
   1.34088576e-01 -6.44544363e-01  1.14687130e-01  4.24353294e-02
  -1.43983766e-01 -3.29870462e-01 -3.58170331e-01  8.58274549e-02
  -2.88578938e-03  3.34515534e-02 -3.45747888e-01  2.54520830e-02
  -6.85048625e-02 -3.46459568e-01 -2.89432377e-01  3.05006683e-01
  -4.34358567e-02 -2.18102813e-01 -1.53174981e-01 -2.23163351e-01
   3.26126873e-01  3.02475002e-02 -1.65343106e-01  1.16855063e-01
  -1.51946202e-01  1.69355169e-01  5.73872700e-02  1.02660522e-01
   1.23039018e-02  3.95438783e-02 -3.62185203e-02 -2.61337370e-01]
 [-1.41066745e-01 -2.57147159e-02  1.45134972e-02  7.15511367e-02
  -2.71275133e-01  1.26501368e-02  3.23291183e-01  2.07242325e-01
  -1.67065501e-01 -2.10522506e-02  6.57429695e-01  1.19324639e-01
  -2.01791465e-01 -6.78652376e-02  3.22384655e-01  6.50906205e-01
  -1.14737995e-01  5.25425449e-02  1.51122203e-02  7.22232983e-02
   6.21591628e-01 -3.04876029e-01 -3.45114976e-01 -1.88192904e-01
   1.12024404e-01 -1.38596743e-01  1.24074161e-01 -1.74302861e-01
   2.69823134e-01 -1.57280982e-01  3.19222867e-01  1.24255061e-01
  -1.35840429e-02 -4.32164639e-01 -3.70062888e-01  4.01874073e-04
   7.12987781e-03  6.07898906e-02 -9.08665061e-02  9.79217291e-02
   4.64699954e-01 -2.62300491e-01  5.73632717e-02 -6.32314324e-01
  -2.54497766e-01  2.60019481e-01 -4.69965078e-02 -2.88023442e-01
  -4.15867418e-01 -1.15775347e-01 -3.99787098e-01  4.77978110e-01
   2.09620506e-01  8.91555250e-02 -4.03563231e-02  3.74831669e-02
   2.79243082e-01 -1.65498957e-01 -8.03167149e-02 -2.80014485e-01
  -2.31974453e-01 -3.09442997e-01 -8.34662654e-03  9.33582485e-02
   3.97654772e-01 -1.01605669e-01 -4.16603357e-01 -1.23754881e-01
  -4.39493917e-02 -5.22825360e-01 -1.56954154e-01  4.30269301e-01
   1.07476771e-01 -8.77490118e-02 -1.45555645e-01 -2.86493033e-01
   2.48859450e-01  5.77532470e-01 -7.20244467e-01  1.24860890e-01
  -2.49704137e-01  2.04371363e-01  5.24489880e-02  5.36017343e-02
  -6.42309338e-02  5.48022874e-02  2.80550241e-01 -1.42293662e-01
  -1.17758378e-01 -2.02041730e-01  1.62095934e-01  2.83378541e-01
  -2.17873022e-01 -2.77503252e-01  3.25211883e-01  2.71413773e-01
   3.24782789e-01 -4.29311723e-01  2.51694888e-01 -2.24008169e-02
  -3.14663947e-01 -1.80693552e-01 -2.84812808e-01  7.56072477e-02
  -1.81732133e-01  1.85055718e-01  2.25930259e-01 -7.86214173e-02
   7.64527619e-02  3.11319195e-02  2.26297885e-01  3.39431137e-01
  -1.72860965e-01 -2.14048713e-01 -4.48707119e-02  1.16457157e-01
   4.32825461e-02  9.52200070e-02  5.75246327e-02 -5.23213670e-02
  -2.44459391e-01  2.22066700e-01 -4.68486696e-02 -2.86935121e-01
   1.38189375e-01  2.23369356e-02 -4.68223654e-02 -2.29138866e-01]
 [ 1.25618070e-01 -1.92234606e-01 -6.07965328e-02 -6.21942095e-02
  -2.56979197e-01 -1.71255574e-01  2.98525453e-01  3.85809451e-01
  -5.05604669e-02 -6.59615025e-02  3.43125165e-01  1.19894065e-01
  -3.80371436e-02 -2.55127430e-01  2.08326608e-01  1.24621086e-01
  -2.29269683e-01 -3.77922691e-02  2.70052344e-01  1.70694545e-01
   3.52606475e-01 -3.41664366e-02 -2.15477318e-01  2.63142325e-02
   1.80908814e-01 -2.69526988e-01 -1.03234135e-01 -3.49917799e-01
   1.12062529e-01 -1.28199652e-01  5.77188134e-02  3.70595425e-01
  -6.31269664e-02 -2.30255440e-01 -2.08381936e-02  2.54681945e-01
   7.48989806e-02 -1.94430381e-01  8.02513510e-02  9.93906409e-02
   7.56012648e-02 -2.20894620e-01  7.18216971e-02 -6.10844553e-01
   3.28887776e-02  2.10183367e-01  1.14922926e-01  7.43331090e-02
  -3.19647968e-01 -2.38095239e-01 -1.48191005e-01 -1.86602492e-02
   3.87709677e-01  1.62194222e-01  3.03961560e-02  3.03593993e-01
  -8.99606720e-02 -1.67680532e-01 -1.25114396e-01 -4.48625267e-01
  -1.14767924e-02 -4.22455855e-02 -2.24693865e-01 -2.72589058e-01
   1.09962642e-01  2.92590171e-01 -3.72316331e-01 -2.19985232e-01
  -1.21576093e-01 -6.18530810e-01  2.19326541e-02  2.95568824e-01
  -1.53342545e-01  1.96529314e-01 -8.80917441e-03 -2.35912293e-01
   1.25028774e-01  3.65422845e-01 -4.01608467e-01  1.78592950e-01
  -1.38324291e-01 -3.78756714e-03  2.03579783e-01  1.64163321e-01
   2.06548378e-01  7.49671087e-02  2.54039392e-02 -2.52884865e-01
  -1.24580480e-01 -9.99165773e-02 -5.32050915e-02  1.65021405e-01
  -3.69839281e-01 -1.22703642e-01  1.95234083e-04  4.75141630e-02
   7.30929524e-02 -4.95929241e-01 -9.64372605e-02 -1.30465459e-02
  -3.29560697e-01 -2.86189377e-01 -1.64276958e-01  4.35480773e-02
  -8.34017172e-02  2.63023555e-01  1.72968190e-02 -3.62230651e-02
  -1.28020365e-02 -9.96182933e-02  2.95020223e-01  3.05104088e-02
  -2.87692528e-02 -2.24876344e-01 -1.50730669e-01 -1.73701897e-01
  -7.26883039e-02 -2.38401175e-01  1.98742792e-01 -5.53235994e-04
  -4.91189733e-02  1.18541226e-01  1.07743740e-01  3.37215781e-01
  -2.45838284e-01  5.78472130e-02 -2.70724475e-01 -7.55761743e-01]
 [ 1.96210593e-01 -4.10346627e-01  1.34522006e-01 -2.29909405e-01
  -1.74221441e-01  2.20030159e-01  3.90399426e-01  2.71633953e-01
   6.04466498e-02  2.76921969e-02  3.27109098e-01 -2.44125262e-01
  -1.34912848e-01  4.81665730e-01  1.17871791e-01  2.73512423e-01
  -4.38828915e-01 -5.92585921e-01  8.41623127e-01  2.53744960e-01
  -8.16488788e-02 -1.78012341e-01 -4.17555906e-02 -6.51681542e-01
   8.04912373e-02 -3.09070051e-01  1.53273821e-01  4.71566170e-01
   2.84442306e-01 -2.77422190e-01 -2.15475827e-01  3.62811476e-01
  -3.81514847e-01  3.84178638e-01  2.29212254e-01  5.62138140e-01
   5.14492160e-03  1.46373332e-01 -2.58815557e-01  1.91703707e-01
  -3.01132780e-02  1.00468770e-01 -3.69691998e-01 -5.67897081e-01
  -1.35492057e-01  3.36515605e-01  2.03554124e-01 -2.80752569e-01
   3.74200016e-01  4.66277301e-02  3.80079150e-02 -1.02680027e-01
  -1.70100033e-01  2.26036936e-01  2.55390912e-01  3.09298187e-01
  -2.40875676e-01 -3.31258893e-01 -4.49356474e-02  1.55789346e-01
  -2.74306685e-01 -1.15992136e-01 -4.36004438e-02  5.60199581e-02
  -3.90829176e-01  3.68128300e-01 -4.20136720e-01 -3.22846264e-01
  -6.43885210e-02 -6.25086874e-02  4.58367527e-01  8.02269205e-02
   1.17446400e-01 -1.22210935e-01  2.23452568e-01 -2.27096930e-01
   6.73286542e-02  2.06968442e-01  4.46583778e-01  5.82520306e-01
   3.10602337e-01  1.94368616e-01  8.78466666e-02  3.68362039e-01
  -1.64981131e-02 -1.23549350e-01  1.22021861e-01 -2.49352738e-01
   4.70172673e-01  1.30606713e-02  1.67677030e-01 -1.15391938e-02
  -6.64012954e-02 -1.90205202e-01  1.45248204e-01 -1.03912890e-01
   4.17335242e-01  1.06790088e-01 -5.20930767e-01 -8.84257182e-02
  -7.27590472e-02 -3.67062420e-01  6.19111583e-02 -9.53749493e-02
   2.93745637e-01  7.14190602e-02  2.16279089e-01  3.24256495e-02
  -2.87361026e-01  4.47127461e-01  1.44412875e-01 -5.74794352e-01
  -1.49861932e-01  1.85809001e-01 -3.56026798e-01 -1.31384246e-02
  -1.40179396e-01 -3.53193253e-01  3.59661758e-01 -8.17456990e-02
  -2.82736719e-02  5.48331261e-01 -2.88023293e-01  1.70266017e-01
  -3.98608111e-02  1.83442608e-01 -2.98049003e-01 -1.74425513e-01]
 [ 1.27749428e-01  3.39202173e-02 -8.80978853e-02 -2.08092421e-01
  -1.17254794e-01  1.93909198e-01 -6.38960004e-02 -4.48491454e-01
   7.66252875e-02  4.42941897e-02  2.18329087e-01 -2.71784723e-01
  -1.55548051e-01  4.84046191e-02 -1.43510148e-01  7.24730417e-02
  -3.02737564e-01 -7.43334182e-04 -3.82174045e-01  3.91627133e-01
   1.58144370e-01  3.89341056e-01  1.84136212e-01  3.41390282e-01
  -1.59032330e-01  5.00577211e-01 -1.80567667e-01 -3.18924665e-01
   3.03222567e-01 -6.43863976e-02  1.22594588e-01  5.48192337e-02
   2.31338255e-02 -1.34427577e-01  5.28472941e-03  9.69897434e-02
  -3.69938500e-02 -1.80467203e-01  5.43685496e-01 -2.94710934e-01
  -1.32370174e-01 -5.10541499e-02 -1.35435626e-01 -2.15306699e-01
   5.88368112e-03 -1.79169819e-01  1.34242456e-02 -3.19239140e-01
  -3.55121851e-01  2.75314301e-01 -3.84636372e-02  2.13983282e-01
   6.03279471e-02 -1.88354015e-01 -2.17743143e-01 -7.03241229e-01
   3.65138412e-01  5.00721812e-01  1.17696397e-01  2.64713503e-02
  -1.69907168e-01 -4.22093868e-02 -4.11831409e-01  5.30680180e-01
  -5.74840680e-02 -8.72605518e-02  4.39702332e-01  3.79402995e-01
   2.25938126e-01  2.59907842e-01 -2.07449079e-01 -1.69816419e-01
  -1.76256031e-01 -3.81278574e-01  1.13440290e-01  1.96210667e-02
   1.86591715e-01  2.75916547e-01 -1.45856678e-01  2.69366130e-02
   2.09241193e-02 -1.59752056e-01 -5.89104354e-01  1.18205011e-01
  -2.08896831e-01 -3.42289746e-01  6.12767525e-02 -6.29662573e-02
  -1.98700409e-02 -3.38555090e-02 -8.66292045e-02  2.40988825e-02
   9.54278484e-02  5.25705814e-02 -3.94149981e-02  1.31447241e-01
  -1.27530470e-01  1.60201564e-01  8.49025130e-01  1.04633924e-02
   7.88920522e-02  2.83809602e-01 -1.90681040e-01  1.77767262e-01
  -2.02927247e-01 -1.48000285e-01  5.27973436e-02 -6.65755346e-02
   1.45093650e-01 -7.46958628e-02 -2.42846593e-01  2.49517206e-02
   1.47661284e-01 -1.59005389e-01 -1.36799172e-01 -6.22547269e-02
  -3.21382105e-01 -1.66477308e-01  1.53328389e-01  2.30305791e-01
   4.83220249e-01 -1.59117594e-01  1.55899823e-01 -4.08051491e-01
   1.35743991e-01 -2.52622515e-01 -3.80270630e-01 -1.04181036e-01]
 [ 3.02400231e-01 -3.72465998e-01  2.76494980e-01 -7.34174401e-02
  -3.31994802e-01  8.31783563e-02  5.82734466e-01 -4.08854485e-01
   4.61371332e-01  1.97181106e-02  5.71820021e-01  1.86300233e-01
  -5.65814972e-01  3.60032022e-02 -2.25642323e-01  4.01908755e-01
  -1.82936937e-01 -1.28682867e-01  3.29361081e-01 -3.03438399e-02
   6.64686039e-02 -1.07177891e-01  4.13407564e-01 -5.20623801e-03
   2.83291768e-02 -2.69674033e-01 -1.86048552e-01 -3.99941742e-01
   4.28421408e-01  3.65168095e-01  1.84263200e-01  3.29766452e-01
   1.21867761e-01 -1.56654924e-01  5.40179729e-01  1.05982997e-01
   3.76681872e-02 -2.94681311e-01  3.95993441e-01  1.33465007e-01
   2.74349153e-01  4.55566317e-01 -5.19394636e-01 -2.05364078e-01
  -8.17304701e-02 -1.59699172e-02 -7.14961663e-02 -5.37147999e-01
  -1.55335680e-01 -5.31790778e-02 -2.92592764e-01  3.49783212e-01
  -5.38157262e-02 -3.33430141e-01  5.11402898e-02 -3.83255049e-03
  -5.99105656e-02 -2.34796666e-02 -5.42236939e-02  1.37796566e-01
   3.57924365e-02  2.66421676e-01 -5.05358994e-01  2.66941667e-01
   3.19791526e-01  4.09616500e-01 -1.72326580e-01 -3.45600605e-01
  -3.35286140e-01 -1.59781039e-01 -3.45440321e-02 -1.83222026e-01
   9.66853723e-02 -3.29036057e-01 -7.15699494e-02  5.48348874e-02
   6.11371920e-03  1.47376612e-01  1.20418712e-01  2.70879298e-01
   7.83480762e-04  2.57950723e-01  2.49786451e-01  4.98328269e-01
   3.68782766e-02 -9.70918015e-02 -5.02315499e-02  4.67701629e-02
   1.94969438e-02 -1.79776952e-01 -4.35038596e-01 -2.08122343e-01
   8.59524384e-02 -3.38497788e-01  2.09327281e-01 -2.37010121e-02
   1.61285982e-01 -9.47983086e-01  1.31834269e-01 -1.95234604e-02
   2.77736168e-02 -3.35701466e-01  5.33695042e-01  4.61733229e-02
   3.63436669e-01  4.44585145e-01  1.50289640e-01  6.61738683e-03
   7.49148009e-03  3.06474239e-01  2.22903162e-01  2.90052723e-02
   2.67479867e-01  4.35818464e-01 -2.25071430e-01  2.47565821e-01
  -3.26657742e-01 -3.41364980e-01  9.76657495e-02 -1.63692776e-02
   4.02976602e-01  5.14790475e-01  1.75764024e-01  8.06777894e-01
  -1.18780747e-01 -3.57605368e-01 -2.14324027e-01 -7.65141308e-01]
 [ 5.07445633e-01 -1.52727393e-02  1.27096027e-01 -3.23457003e-01
   1.22816518e-01 -1.50780398e-02  1.55964673e-01  1.92908600e-01
   2.64563471e-01  3.59808803e-02  2.51511782e-01  8.08632910e-01
   1.92567557e-01 -1.43017858e-01 -5.01912773e-01  4.65862364e-01
  -2.57957485e-02 -1.06414594e-01 -3.82851213e-01 -2.04992905e-01
  -3.58885944e-01  1.36977434e-03  2.44071737e-01 -6.05730377e-02
  -3.12904775e-01  8.55242983e-02 -1.18232109e-01 -7.12623671e-02
   1.31104738e-01  5.83565198e-02 -1.00185007e-01  3.95688303e-02
   3.10154319e-01  2.14570433e-01 -1.66367069e-02  5.02477050e-01
  -1.16332173e-02  9.70953405e-02  2.63671011e-01  4.51054096e-01
   4.20231223e-01 -2.33119428e-01 -2.83015937e-01 -4.02752608e-01
   1.86244011e-01 -1.99680999e-01 -1.43190458e-01 -2.55322576e-01
  -3.05802003e-02  6.94669634e-02  2.12676570e-01  3.71960253e-02
  -1.23680502e-01 -2.58801162e-01  4.69337255e-02  1.14742443e-01
   4.82681930e-01 -3.16735245e-02 -5.67946918e-02  2.45833695e-01
   2.49445885e-01 -3.41742784e-01 -2.99391925e-01  4.62894052e-01
   1.99586004e-01  2.72098482e-01  2.67845005e-01  3.00222039e-01
   2.94217348e-01 -1.89229116e-01 -1.16296373e-01 -1.51781410e-01
   1.37361392e-01 -5.54934502e-01 -1.63732246e-01  3.64863157e-01
  -1.74220830e-01 -1.02799840e-01  2.71396399e-01 -1.24341443e-01
   1.92924321e-01  2.05920875e-01  9.22074690e-02 -1.44756153e-01
  -5.20029902e-01  1.33777261e-01  6.76289946e-02  2.17983022e-01
   3.87715429e-01 -2.98965275e-01 -4.57476437e-01 -6.78911805e-01
   2.05766395e-01 -1.80865094e-01 -2.34787166e-02  1.75581321e-01
   1.10927090e-01 -1.53648853e-01  9.38232318e-02 -3.87748741e-02
   3.16825807e-01 -9.30825770e-02  7.12586418e-02  6.19538352e-02
  -1.43724665e-01  2.23381549e-01 -2.90479451e-01  4.69114967e-02
   2.25095138e-01 -1.44224158e-02 -5.83106875e-01  1.70968905e-01
   4.24988031e-01  6.97096512e-02 -6.22178391e-02  3.92795146e-01
  -1.02716096e-01  6.35351986e-02 -1.48051843e-01  4.06345390e-02
  -2.33884975e-02  1.26314610e-01 -1.42523929e-01  6.17786730e-03
  -2.94662893e-01 -4.19790119e-01 -5.06874859e-01  2.10012738e-02]
 [-3.99749279e-02  1.26476269e-02  1.13943681e-01 -4.22600538e-01
  -1.50834650e-01  3.38933319e-01  7.44854435e-02  1.87061444e-01
   2.91863620e-01  2.88242884e-02 -2.35667437e-01  6.48494717e-03
   9.45114717e-02  3.43430877e-01 -4.73392248e-01  3.06671441e-01
  -2.62525111e-01 -1.51975647e-01 -1.72423616e-01 -2.54746765e-01
  -2.41821378e-01  3.83172214e-01  2.46007428e-01  8.43068734e-02
  -2.40089521e-01  2.24090680e-01  3.39261770e-01  2.12223455e-02
   2.56665975e-01 -5.82777798e-01 -2.38154843e-01 -3.01245093e-01
   1.39528915e-01  3.25858630e-02 -1.11207068e-01 -2.18162492e-01
  -4.57629375e-02 -2.27862641e-01  3.11921984e-01  2.69365311e-01
   2.20754191e-01 -2.16664687e-01 -4.06709135e-01 -1.00839034e-01
  -2.89738685e-01 -3.20099682e-01 -1.68758705e-01  1.85781062e-01
  -3.86356890e-01  3.46675247e-01  1.17931388e-01  9.61289480e-02
  -1.23157226e-01 -2.53615707e-01  1.99587688e-01  7.52915442e-02
   2.11716592e-01  2.16377929e-01 -4.52195778e-02  5.58926128e-02
   1.93534747e-01 -5.61695337e-01 -2.73580790e-01  4.78707910e-01
   1.12575844e-01 -3.99569690e-01  2.44395748e-01  5.82047939e-01
   6.22314028e-02 -5.00848651e-01  5.66678457e-02  1.31216154e-01
   1.27946422e-01 -3.46356004e-01 -3.10735516e-02 -1.24811471e-01
   1.96620166e-01 -1.56985641e-01  1.59623340e-01 -1.69799060e-01
  -4.45895255e-01 -3.07863206e-01 -5.69083840e-02 -1.50898799e-01
  -5.42592287e-01  1.34866342e-01  2.10230410e-01 -2.52753377e-01
   3.70510012e-01 -3.67315173e-01 -3.33332330e-01 -4.72852439e-01
   8.84295478e-02 -2.18209028e-01  1.87557265e-01  3.54541630e-01
  -1.13706268e-01  6.41796827e-01  2.85050184e-01  2.83681713e-02
   5.55562854e-01  6.32335901e-01 -2.39637673e-01  3.16173226e-01
  -1.44396231e-01 -2.55592376e-01  8.47150981e-02  6.64905533e-02
  -2.14361250e-02  1.21989869e-01 -7.67564178e-02  5.86291216e-02
   4.71149445e-01 -4.78321947e-02  1.34240955e-01  2.02383399e-01
  -1.08716063e-01  2.91078508e-01  4.07524928e-02  6.67880848e-03
  -6.69598222e-01 -4.52940762e-01 -2.46864095e-01 -4.60679799e-01
   1.74642615e-02 -1.57325864e-01 -4.27676260e-01  5.49528837e-01]
 [-2.13921759e-02 -3.29514563e-01  3.63528281e-01 -3.26740533e-01
  -2.28392720e-01  6.00989349e-02 -1.11499438e-02 -7.46814013e-02
  -7.36066476e-02 -2.58939043e-02  1.99345216e-01  5.24713993e-02
   7.32473955e-02 -1.16884239e-01 -2.79734582e-01  5.08769631e-01
  -6.17031157e-02 -2.32994437e-01  1.04729250e-01  3.46143007e-01
   2.00729519e-01  1.23636983e-01 -1.41371012e-01 -6.12681270e-01
  -1.14302911e-01  4.17278916e-01  6.24951273e-02 -2.28541687e-01
   2.69252867e-01  2.83098936e-01 -1.65835381e-01 -6.44772872e-03
  -3.75050865e-02  3.66546437e-02 -1.79200713e-02 -9.52122081e-03
  -5.81907295e-03  1.37742668e-01  2.78933913e-01 -1.39518797e-01
   5.58688462e-01 -1.56565845e-01 -1.30322143e-01 -4.62198347e-01
  -9.72401276e-02 -2.45931014e-01 -1.70214511e-02 -3.36491108e-01
   1.20374084e-01  1.76580101e-02  3.21084186e-02  2.18347356e-01
  -4.01570946e-01 -3.39536726e-01  7.75834406e-03 -1.10921167e-01
  -1.93330534e-02 -5.04898392e-02  3.96137908e-02 -3.58115941e-01
  -1.30321225e-02 -1.27096206e-01 -2.49463484e-01  2.21758083e-01
   2.52730131e-01  1.04806200e-01 -5.20182967e-01  9.78709981e-02
   1.39694303e-01  3.20267946e-01 -2.84674883e-01 -1.85838997e-01
   1.08629532e-01 -4.08752173e-01 -1.10158853e-01 -3.58028978e-01
  -7.35004432e-03  1.00389861e-01  5.65905161e-02  5.22703752e-02
  -2.52042055e-01  1.41407838e-02  6.89003840e-02  1.26056954e-01
  -2.10009545e-01  1.39585570e-01  3.66758436e-01  1.97735354e-01
   5.66479802e-01  1.08139731e-01 -1.59531906e-01  1.34197712e-01
   7.89075941e-02 -1.88490078e-01  2.99371868e-01  3.30827475e-01
   3.71263832e-01  4.21647191e-01  1.12050891e-01 -1.38974460e-02
  -1.88016549e-01  1.11878730e-01  6.53749704e-02  1.80319846e-01
   2.77462125e-01 -2.73228407e-01 -2.92388350e-01 -3.94405946e-02
   7.76116103e-02  1.23365119e-01  2.75965519e-02 -9.66941416e-02
   2.52841294e-01 -7.53778368e-02  1.37196705e-01 -1.96870118e-02
  -1.38771504e-01  1.92632213e-01  2.76791781e-01  3.10299516e-01
  -7.35688582e-02 -1.48818791e-01 -2.46895149e-01  1.50615796e-02
   3.84088784e-01  1.07518412e-01 -2.78692484e-01  1.90727577e-01]
 [ 3.00262779e-01 -5.23176551e-01  2.50913613e-02 -4.94144708e-01
  -1.47304922e-01  4.07363862e-01  3.90224457e-01  3.54129434e-01
   9.37053561e-02 -3.51560637e-02  4.13721114e-01  1.90570541e-02
   1.71974421e-01  2.01898634e-01  2.10849047e-02  5.71856022e-01
  -3.15685451e-01  8.24781805e-02  1.58298761e-01  1.15151890e-01
   2.11785272e-01  4.38684225e-02 -2.01887906e-01 -6.53040409e-01
  -2.55638748e-01  1.34456411e-01  4.90141213e-02 -4.52935696e-02
   3.81030351e-01 -2.06985176e-01 -3.83802414e-01  1.84629738e-01
  -3.70572763e-03  2.36356571e-01 -3.49191844e-01  2.90490896e-01
  -1.15399025e-02  1.48857772e-01  1.75977901e-01  7.32196029e-03
  -9.91304368e-02 -1.91869915e-01 -1.38041452e-01 -1.91094786e-01
  -1.72252730e-01  1.08190477e-01 -2.24831477e-01 -1.09212048e-01
  -2.57083680e-02 -2.06622750e-01 -1.04166150e-01  3.07085365e-01
  -5.04806638e-01 -2.22963974e-01  8.45276266e-02 -2.64202710e-02
   2.50291914e-01 -5.46503291e-02  1.32826954e-01  5.10876961e-02
   1.25895306e-01 -6.33143308e-03 -2.91821063e-01  3.66884857e-01
  -1.19565725e-01  1.58571333e-01 -3.84154320e-01  1.80237919e-01
   2.56005619e-02  4.45783399e-02 -4.01073009e-01  2.06371665e-01
   4.10647690e-02 -3.10257245e-02  1.19399250e-01 -1.92343280e-01
   1.82347596e-01  2.83572435e-01 -3.50301921e-01  2.44053910e-04
  -3.03766876e-01 -1.06624588e-01  6.94889575e-02  5.47079444e-02
  -1.25856683e-01 -2.61079162e-01 -1.36320129e-01  1.68662041e-01
   3.34316552e-01 -2.99607784e-01 -3.47206369e-02  1.92112923e-02
   4.86922301e-02 -4.35915053e-01  2.32507169e-01  2.31935188e-01
   2.16692835e-01  1.21894315e-01  4.52859253e-02  3.14610731e-03
  -2.20779926e-01  6.91157699e-01  2.07165211e-01  1.84591919e-01
   2.98814122e-02 -7.98182264e-02 -5.58257163e-01  2.52431743e-02
  -1.30766392e-01  1.67738914e-01 -3.02308947e-01  2.98884720e-01
   1.92216560e-01  2.42920667e-01  4.10959661e-01  5.89152426e-02
  -4.90981460e-01  5.10086298e-01  1.11095399e-01  5.06854296e-01
   4.53183763e-02  2.94614404e-01 -3.44280869e-01 -3.15860808e-01
  -3.58502030e-01 -3.33116859e-01 -2.68687278e-01  3.69014358e-03]
 [-1.88507810e-01  1.93970576e-01  1.19039893e-01 -9.01529074e-01
  -4.40206707e-01  5.68094552e-01  5.59074432e-02 -1.97862357e-01
   2.13349178e-01  2.50620022e-02  3.04991603e-01 -3.82237345e-01
  -5.12039423e-01  5.58230519e-01 -2.36629307e-01  3.36482763e-01
   2.56906971e-02 -5.66588521e-01  5.36181778e-02  3.02449822e-01
   8.73859823e-02  7.52861723e-02  1.65076584e-01 -3.71294200e-01
  -2.19613194e-01  3.22537541e-01  4.83826727e-01  2.99074352e-01
   3.03106427e-01  6.89768344e-02 -7.04251409e-01 -1.90772802e-01
   3.18587631e-01  4.18550074e-01 -8.81997868e-02  1.42609835e-01
   4.62474339e-02  5.41864820e-02 -3.11443768e-02  4.43446599e-02
  -1.20607475e-02 -2.25992687e-02  3.02065700e-01 -2.87772119e-01
  -2.07294121e-01  4.15285408e-01 -1.56983301e-01 -2.23432466e-01
   8.18766728e-02 -1.46628276e-01  5.84943257e-02  3.80610704e-01
  -2.23498896e-01 -2.17907861e-01  1.04680672e-01  6.56863078e-02
  -1.50158435e-01 -4.49112892e-01  9.55687687e-02 -3.50659527e-02
   6.50919080e-02 -8.75703692e-02 -2.93219328e-01  7.27565944e-01
  -1.83629841e-01 -2.85484880e-01  3.31569821e-01  3.02074086e-02
   1.67501003e-01 -1.91075310e-01 -1.99021518e-01 -5.35376072e-02
   1.22920312e-02 -1.39630005e-01 -1.07589096e-01 -5.95999546e-02
   3.16223115e-01  1.74124703e-01 -1.17480479e-01  1.97585717e-01
  -5.55128992e-01  3.83116871e-01 -3.71108502e-01 -1.21775195e-01
  -3.02989990e-01  1.46537144e-02 -1.32667392e-01  3.30680847e-01
   1.30923629e-01 -9.27917138e-02 -1.07664673e-03 -1.79006830e-01
   6.70723021e-02 -1.75797597e-01 -6.26742840e-02  4.75342035e-01
   2.82884538e-01 -1.30544854e-02 -5.27585983e-01  2.29009390e-02
  -4.00772914e-02  6.08124956e-02 -2.01915175e-01  4.27721024e-01
  -2.89420426e-01  3.10887575e-01  1.02569923e-01 -6.67448565e-02
  -1.72137648e-01  1.02367796e-01 -2.87893236e-01  1.69973739e-03
   1.75978765e-01 -2.44143307e-01 -4.07531559e-02  2.74360150e-01
  -4.08499718e-01 -1.40807867e-01  1.74035784e-02  3.10908943e-01
  -7.88043886e-02 -7.50775589e-03 -2.67011344e-01 -1.76133871e-01
   6.52443394e-02  1.82884708e-01  4.23579291e-02  2.41138339e-01]
 [ 2.49295190e-01 -3.83971669e-02  3.84879619e-01 -1.97115839e-02
  -3.32492173e-01  2.64651448e-01  1.26974538e-01 -1.54600218e-01
   2.33951613e-01  3.07511613e-02  3.06373417e-01 -1.58652049e-02
  -6.04893602e-02 -1.91425055e-01 -3.53039742e-01  7.77502283e-02
   4.02469307e-01 -1.27404109e-02 -2.88079649e-01  6.75065666e-02
   1.01678677e-01 -5.32437526e-02  8.61004665e-02  4.32776988e-01
  -1.87909290e-01  5.11090219e-01  2.96310663e-01 -1.98659316e-01
  -3.89174260e-02 -9.09488797e-02  2.10030273e-01  8.00136551e-02
   1.57779530e-02 -8.94649178e-02 -3.64719987e-01 -1.18491359e-01
   3.80974524e-02  4.79787141e-01  1.47411704e-01 -3.46665978e-01
   1.44925267e-01 -1.01848923e-01 -1.38273053e-02  7.64603727e-03
   3.43277007e-01 -1.02889732e-01  6.55589178e-02 -1.93175569e-01
  -6.30598247e-01 -1.40055045e-01 -2.83892781e-01  3.05723816e-01
  -4.70616996e-01  2.21103758e-01  2.14666992e-01  2.66408205e-01
   3.41724277e-01 -4.92317639e-02  7.99924135e-03 -6.12912953e-01
   1.73822817e-04 -6.27921000e-02  2.15373650e-01 -2.16686614e-02
   1.60396509e-02  1.09371834e-01  3.83490287e-02  4.65610445e-01
   3.32803465e-02  3.33046049e-01 -5.86035073e-01 -4.80436504e-01
   8.51435512e-02 -3.33732396e-01 -3.61765146e-01 -1.20076410e-01
  -1.86774060e-01  3.52995932e-01 -5.58625221e-01 -6.34604454e-01
  -6.53210357e-02 -4.06908870e-01 -4.15667333e-02 -9.52998027e-02
  -1.46849290e-01  4.75749075e-02  2.10053638e-01  1.38765171e-01
   2.58428037e-01 -2.83199072e-01 -2.25988701e-01 -1.95003673e-01
  -2.37695668e-02  1.11245122e-02 -1.03312962e-01  2.74755836e-01
   5.54910898e-01  3.72642547e-01  5.92145205e-01  4.23737569e-03
  -4.81109992e-02  8.64818692e-03 -2.44711086e-01  1.41727835e-01
   5.76984808e-02  4.17412788e-01 -1.42424971e-01 -8.24039131e-02
  -2.22005069e-01  1.28060430e-01 -8.39286521e-02  4.17019688e-02
  -1.25271650e-02 -1.42272532e-01  6.78558201e-02  1.10032983e-01
  -3.24789472e-02  3.98220778e-01 -2.75624424e-01  1.11663826e-01
   5.43995574e-02  3.94863002e-02  1.84670135e-01  1.30523130e-01
   3.53301734e-01  1.69659123e-01  4.29466516e-02  3.61041516e-01]
 [ 3.54478598e-01 -1.54202864e-01 -1.19183049e-01 -2.32146397e-01
  -5.15204728e-01  2.47095734e-01  6.05156839e-01 -4.53308336e-02
   1.43160999e-01  4.54574265e-02  1.59088388e-01  1.58799123e-02
  -2.31216758e-01  2.48082116e-01 -4.71106656e-02  8.52811709e-02
  -1.29061416e-01 -2.31473967e-02  1.79696813e-01 -1.11365952e-01
   2.08080694e-01 -8.07764307e-02 -2.60288507e-01 -2.23171696e-01
   1.92728043e-01 -1.84954479e-01  2.82207727e-01  4.16359454e-01
   3.84053916e-01 -7.22519159e-01 -4.31956291e-01 -2.35536769e-01
  -2.70474274e-02  4.12715107e-01 -3.63053530e-02 -3.96215975e-01
  -8.02937374e-02 -1.25678718e-01  4.06650007e-01  1.61644757e-01
   3.30314368e-01 -6.72251731e-02 -2.98838258e-01 -3.35055977e-01
  -1.64999783e-01 -4.64241691e-02  1.20704314e-02 -3.83212119e-01
  -3.73445272e-01 -2.00371727e-01 -1.05991811e-02  4.70784277e-01
  -2.49421641e-01  3.82138968e-01  6.23922348e-01  4.64152217e-01
   6.46850824e-01  2.04033151e-01 -4.73343581e-01  1.92611635e-01
  -1.74471647e-01 -3.20666105e-01 -2.01790422e-01  1.10692509e-01
   3.22048604e-01 -4.13489752e-02  9.29612815e-02  7.53946245e-01
   4.58849430e-01 -3.17527920e-01 -3.53360265e-01  4.51109558e-01
  -8.65010172e-02  1.73911870e-01 -3.23518246e-01 -2.27819115e-01
   6.38803780e-01  1.46102935e-01 -2.85806566e-01 -9.78072062e-02
  -8.45150873e-02 -4.66143072e-01  2.15908408e-01  4.57362309e-02
  -2.90467560e-01  2.39506960e-02  3.15292120e-01 -1.18573710e-01
   4.23089057e-01  4.90479404e-03 -2.00024843e-02 -5.02360106e-01
   1.96137220e-01 -3.06559280e-02  2.75176823e-01  1.08666629e-01
   1.24289811e-01  3.82547796e-01  6.63194001e-01  4.25973758e-02
   4.90158886e-01  3.30431223e-01  7.04751760e-02  4.13580060e-01
   1.16746232e-01 -2.32446223e-01  5.18771820e-02  1.02818692e-02
  -2.03034848e-01  4.26439643e-01  4.95410562e-01 -9.49883759e-02
  -1.02441125e-01  3.23256403e-01  6.59648329e-02 -2.63518952e-02
  -1.81938961e-01  3.86562616e-01  1.46234840e-01  5.48151612e-01
  -4.57734466e-01 -2.13021219e-01 -3.08879048e-01 -1.74023256e-01
  -5.36432862e-02 -3.09298158e-01 -6.47557616e-01  1.35439962e-01]
 [ 3.22619230e-01  1.16328076e-01 -4.21936929e-01  3.22151780e-01
  -2.04954341e-01  2.64993995e-01  1.49409190e-01  2.67323256e-01
   1.16791271e-01 -1.13364067e-02  1.73287496e-01 -1.73737630e-01
  -3.07316743e-02  4.15135771e-01  3.38539988e-01 -3.95873696e-01
  -2.53011361e-02  3.32275420e-01  2.15574473e-01  4.51713324e-01
   4.79993492e-01 -1.14119641e-01 -6.69298768e-01  4.36144799e-01
   2.03454241e-01 -9.68276113e-02  3.59049529e-01  2.95401692e-01
   5.33201545e-02 -7.04381704e-01  2.63137966e-01 -1.92570284e-01
  -1.71158478e-01  1.78947493e-01 -1.95588276e-01  2.43748933e-01
   1.68773662e-02 -2.50705510e-01  5.68807244e-01 -1.70328438e-01
  -1.09160736e-01  1.40661255e-01 -8.27147588e-02 -1.84331238e-01
   3.14041376e-01 -1.88419744e-01  9.55491737e-02  4.27997820e-02
  -6.35741472e-01 -1.02577977e-01 -6.24719821e-02  7.44566917e-02
   7.45742396e-03  4.02598053e-01  4.95372057e-01 -1.40713781e-01
   2.48782843e-01  2.68311817e-02  2.05082372e-01 -3.48501801e-01
   4.01630133e-01 -2.39050910e-02 -6.86453562e-03  2.28324875e-01
   3.52484971e-01  2.61727534e-02 -1.83104679e-01  6.31347537e-01
  -9.16557759e-03 -6.05858326e-01  6.98990896e-02 -2.66255885e-01
  -1.86785445e-01 -2.32201397e-01  4.17864144e-01 -6.04925342e-02
   1.67721957e-01  2.53590465e-01 -6.65503263e-01 -5.25877215e-02
  -4.13822830e-01 -3.72590721e-01  3.21553022e-01  7.27924705e-02
   9.41168666e-02 -3.62520844e-01  6.44782424e-01 -2.16878191e-01
  -2.73922235e-01 -3.35849196e-01  5.83394431e-02  7.28181005e-02
  -2.82543212e-01 -4.13979292e-01  3.68359089e-01  3.61399025e-01
   1.12850387e-02  4.22150820e-01 -6.13596141e-02  1.84703469e-02
   1.92791656e-01  5.49290538e-01 -2.41096586e-01  2.69359678e-01
  -4.45033401e-01 -5.02217449e-02  4.35230255e-01 -7.61396289e-02
  -8.04826736e-01  2.50295430e-01  6.49880648e-01 -3.79487336e-01
  -1.99725613e-01  1.61753833e-01  2.01263011e-01 -6.02691732e-02
   6.52799085e-02  3.87154445e-02 -1.68909833e-01 -2.03111023e-02
  -4.22333688e-01 -3.69543672e-01 -9.73453820e-02 -4.10160959e-01
   2.73510337e-01  4.83917408e-02 -6.07048810e-01  4.14108820e-02]
 [ 1.30961582e-01  5.95815815e-02 -1.68162689e-01 -3.76858145e-01
   1.73356816e-01  7.86351562e-02  1.44782811e-01  5.60328141e-02
   2.78931372e-02  4.82275039e-02  1.49673983e-01  7.10954517e-02
  -2.38378435e-01  2.89592355e-01 -7.50646070e-02  1.62280351e-01
  -4.28815857e-02 -2.90797710e-01  5.42749882e-01 -4.34356898e-01
  -9.53460261e-02  2.91030575e-02  1.88509479e-01  3.37730050e-01
  -4.54086721e-01 -1.80469453e-01  3.71860228e-02 -2.30074581e-02
   9.18431580e-02 -3.83492380e-01  8.20131153e-02 -1.23031259e-01
   1.02872029e-01 -1.77900240e-01 -3.86162400e-02 -7.68942013e-02
  -1.08970003e-02 -2.66216785e-01  3.93561214e-01 -2.55188216e-02
